-6.905536726195901e-05,0.00036280423229196164,-0.00021961990845378976,0.00018179067940670663,3.9527337643590776e-05,-0.00014795246951783222,7.322368343046203e-05,1.9035585459134748e-05,-0.00021150330680146635,8.919834344563662e-06,-0.0002951077980687989,6.923578234948241e-05,0.0001352769207924606,0.00029141283090366966,-0.0001455050688876005,0.0003970375983140112,0.0002296522643617916,-0.000344163484344329,-2.8177389988216515e-06,-0.00015808690837596108,0.00015390253671856063,0.00015478479348764862,3.850185679775382e-05,-4.317743670019514e-06,1.490383951224046e-05,-8.103802378605318e-05,-0.00015856430720429998,-0.0002304069519087359,0.0002796249725318487,0.00010104922923301794,0.0001786744768438372,2.047513651734077e-05,0.0002709545482948562,-3.6772454199806055e-05,-0.0002807024636808677,-0.0002299355668980412,-8.455880142047543e-05,-7.181412625924972e-05,-3.8572842835673333e-05,-3.046876388904404e-05,-0.00016564648112888386,3.8608757009815144e-05,-0.00034590581269007336,-5.2246234485700086e-06,0.00011870919641456466,0.00024065090799240923,6.191550305232395e-05,0.00010403663639013574,-0.0001709212144451455,-0.00015319187515657433,5.372065857567995e-05,-8.979920968855276e-05,-0.00010691270673874664,8.123299875704243e-05,0.0002812956367498447,-5.801060537913515e-05,0.00019451024219163397,-0.0002393139817989103,0.00018543262365156398,-0.0005308280902458634,-0.0001836777516388839,-0.00021656271632698908,-6.272671702483163e-05,0.00016681579691915524,0.00033028850562403833,6.11787121197345e-05,-0.000339996299652529,8.821049571417564e-05,6.302286227980705e-05,9.449276519777128e-05,-0.00012686199706262965,-5.51885031811901e-05,0.00026584873892845185,-0.00023333973212859093,-0.00022252690806068282,2.766899328833611e-05,7.704370815305559e-05,9.499876999629874e-06,0.00014958250033755897,2.2297346171396183e-06,-0.00029001212866962105,5.5407355432783676e-05,-0.0002628487031605212,8.500847203857309e-05,0.00028484736590313767,-0.00013072072711344662,6.617724323194522e-05,1.658569104988013e-05,0.00028056303097639306,0.00012805223260345023,-0.00014471091042276375,0.0003543576046885933,4.7969598952036115e-05,0.00010216172073101007,-0.00010588296405156762,0.00012734236077328423,6.219597354748977e-05,-0.00010338638682424821,8.054926359552065e-05,-0.0002420679325152392,-7.55418102363238e-05,-6.952958312103764e-05,0.00010905790518495569,-6.668594594646403e-05,2.5452835186951436e-06,0.00010710461226487931,-4.2530708680938905e-05,0.00029999241216881114,-7.750198545053049e-05,-4.105770159924953e-05,-9.31885646164176e-05,4.2953468344411166e-05,1.625879091403421e-05,0.00013384948634088915,1.6238650468095022e-05,0.00013493650409499402,-5.611425311894286e-05,0.00018005353960082735,-0.0003631518800597789,-0.0003099314073536672,-0.00016048706219813118,-4.028975351486511e-05,-0.0002634965085785486,5.7242678638744035e-05,2.3733019514790047e-05,-0.0002489281465152335,2.4623313618033877e-05,9.485319345621919e-05,-2.9323705792788807e-05,0.0003460593964401874,-7.835217817452444e-05,7.189467207641222e-05,-3.601427053727235e-05,-7.381272879683887e-05,-9.768274444608603e-05,0.00040174271563436255,0.00024561886894573694,-0.00023898236625034922,0.00023931159677765805,0.00015739104960332977,8.768474449983987e-05,0.00016261510444818544,9.406114596624836e-05,-8.078674542265815e-05,1.1372476006087425e-05,-0.00012312661231797894,0.00033729064304255065,8.213376996084997e-05,0.00019324992687814525,-0.0003058823176178212,-0.00018971258895551912,0.00036672373154039885,-0.0002568320384700161,-0.00017401260422774103,9.111072992460742e-05,-8.398445598104696e-05,-0.00021074489263202452,-0.00019632228020615588,1.0290747476677034e-05,-0.00016869511784020188,-4.309038796342839e-05,0.00039745184660110226,4.555097789052542e-05,0.0003765903863621298,-0.00033619447872133487,0.0003207345865725518,0.00012489770690334452,-0.0002531911341947941,5.101764901494139e-05,0.00013158350439348298,0.00011920017408135444,0.00023300961431175747,-6.838507983470591e-05,-7.189933244476579e-05,0.00015283956468643533,0.00013970290469602956,-4.3184647832340546e-05,-0.00016246434997060224,0.0001454118119723341,0.00011394279841628366,-0.00018874303523567793,0.0001531455522693302,-3.4511881484931945e-05,-0.0002000186326131221,-0.00028662986749938444,-0.00021783143883741946,-9.619269575096795e-05,-0.0005456204073314837,-9.592109951692784e-05,-0.00015264029322519703,0.00017665243308008366,0.0002476734852619884,-3.687148164059516e-05,-8.024266238716814e-06,1.3319051467286898e-05,-0.00023868720008868904,0.00020944946870567316,0.00022107610405032593,-6.972056941151644e-05,0.000312407435339944,0.00011098516484050933,1.890965794823904e-05,-5.1517998317195616e-05,-6.262716047122258e-05,0.0002578420453856941,-7.989836785408073e-05,0.0002467974057474113,7.253497008575411e-05,-0.00019174454098174734,2.8085378015768525e-05,-9.634532264393551e-05,0.0001782711384260002,-1.554510186249991e-05,-1.0910333146792223e-06,0.0001870070170994579,6.962363338559707e-05,-6.43395497065529e-05,0.0001271798316786911,2.8316998612341407e-05,-7.092119064450423e-05,-0.0001743335395126959,-4.6027886614364796e-05,3.688141399059368e-05,-4.621600619287709e-05,0.00022533670807158492,0.00031338517863632064,3.1497968954455035e-06,1.832746897655055e-05,0.0004353616293647181,-0.0001244716204412564,0.00022677148107677484,0.0002544986192249628,-0.00020417019139686395,0.00015176072680522776,7.1870744655948e-06,0.00010450938219561232,-0.00010848347764129977,0.0003945784651722376,0.00010808938589771591,-0.0002930619131859327,0.000331641815582282,-0.00033932046736357774,-6.637254901281753e-05,-4.8592421268942485e-05,-0.00021451949800086262,0.0001524917182800685,7.43596116085679e-06,5.976860952304568e-06,-2.1558991782843734e-05,-4.4238362643021676e-05,-4.411720816731264e-05,-0.0001906654298959934,-0.000259195839289767,-4.879826684050158e-05,-0.0002388437725204318,0.0001113380811501518,6.161381527886713e-05,2.8174860089007937e-05,0.0002874058461122217,3.705002643318006e-05,0.000138235311720399,-0.00036851479428039364,0.00013613970757932997,0.0001085812311394618,0.0002952670775253018,9.955764769067752e-05,-0.0001541808920977485,0.0002292719812823298,-0.0002350130146283206,0.00022266922610956528,3.6711207718977836e-05,-0.000144542447316939,3.4488289212558544e-05,8.333804486404136e-05,-8.493921713001709e-05,0.00018687186330077602,-0.00029543509290187085,-0.0001219217134126489,0.00028548009233898987,1.6604701061643795e-05,-0.00020156220209018586,-0.00014736378001568187,-0.00015119272165279001,0.0002622097121951219,-7.203428237941242e-05,0.0001112182711840931,-0.0002788589247454413,-0.0001559502590248001,-0.0002550907160684913,-9.013461549819716e-05,0.00016461230238977375,0.00011831771249650505,0.00010605431227766648,-0.00014940482201583234,9.210433046899983e-05,-4.692441032513954e-05,-4.730946412656978e-05,0.00019009825901902046,0.00018040006499725895,-8.207423824673605e-05,-0.00012059967192814876,-0.00026256526749741525,0.00025002870253547485,0.00013749871943131634,6.608194504963217e-05,6.686241325758162e-05,8.07750567360974e-05,0.000261983176755662,-2.1920397037519988e-05,-0.00010275310415958852,-0.0003938970626807991,2.9053429766662803e-06,0.00039819985170483845,-3.821439514436333e-05,0.00014641632993619706,-0.0003714561577937923,-1.0044202695231775e-05,1.075393959660222e-05,0.00010773594783589523,0.0002168429053606038,-9.602482089768268e-05,-3.462204717288547e-05,-0.0002376337392654431,-0.0002058531341652632,-0.0001337448785921343,-1.9072712961376948e-05,-8.463479447684178e-05,-0.00013446645959509036,0.0002546587107761801,4.359895681391203e-05,-8.893056548910669e-05,0.00019563673114275702,-0.00039293447464716457,-0.0001345195799501965,-0.00042564176678206003,5.671150539768808e-05,-2.7070266888055794e-05,-7.063282665537557e-06,-0.00019923727243439593,0.0003555944261774325,3.203353066803406e-05,0.0003123636883105215,-3.142409089704118e-05,3.450612376570594e-05,7.849977335887176e-05,-8.63954018072767e-05,2.2293971981722422e-05,8.858906351681385e-05,0.0003191669443345745,-1.533672810873921e-05,-0.00019896198421250568,-4.652524844493098e-05,-0.00013629699117010598,-0.0001574755000663918,-0.00014215049963448443,-0.00034539154898102515,-0.00015718668279300732,7.089573783482176e-05,0.00013288911384754808,-0.00023878233152479513,-0.0001748402991490102,0.0001268756429026642,-2.159284802280616e-05,0.00046773123565724994,-0.0001715425723441756,-0.0005680151929923743,0.00014550741788074613,0.00019109125937334613,-0.00011023922452658388,-0.00024027796690275687,-0.000151860584967889,0.00013218841108420584,0.00031223568595833273,0.0002130380175766889,8.82429595931246e-05,-0.0003732539209643242,-8.3477859513422e-05,0.00023706856623517455,-0.0001450385924791486,1.9539235726206967e-05,-0.0003065925413604357,0.00020590703577828595,-0.0001869452333500897,-0.0002982953706221245,-0.00015984164308098243,7.637122702755143e-05,0.0003434424249296201,-0.0001023414973884673,0.00010954279249195147,5.0471884214474255e-05,-7.411187387004209e-05,0.00021250706970834456,6.675288490931274e-05,-0.0002551487057855257,-0.00011763533893216206,2.650344187821192e-05,5.934787935555691e-06,-0.00015458492337993697,-0.00026252284512961294,-1.5485828108689152e-06,0.00024921600380102413,-0.0003107077338464307,-0.00023214130100698122,0.0001634432748531452,8.719026407909321e-05,-0.00011192326684068536,0.00011387684528613626,-1.208237939880797e-05,-0.00017917833146224507,-0.0004590463874264551,-2.041222227937683e-05,-6.1695895766165736e-06,4.077810263201743e-05,-7.22137474831655e-05,1.686741574773225e-05,0.00032599567726964557,0.00013330264805500112,-6.962748484934363e-05,-0.00015074196953782746,0.00015069633362003892,5.1317129754093805e-05,9.615859071470368e-05,-0.00011396057594492073,5.2079430621664196e-05,0.0002495559510466094,0.0003557876982625188,0.00022458578768685676,0.00010085831163323388,-9.822399354698557e-05,0.00011714141479495765,9.932886579826503e-05,0.0002163455643289294,0.00012285715556248765,-0.00019036742098486943,-7.140145668633074e-05,-0.00019676329310525144,-1.724597844015084e-06,-1.8278711954999706e-05,0.00010063883555653547,-0.00014118645832149,-3.3487297844230665e-06,-0.00012875322266726777,8.378044586322993e-06,6.804372702148705e-05,0.0004816583417138179,0.00034164906880507093,-0.0002969165286036898,0.00011513620470302693,-0.00017857411681399587,0.00016339009005459027,-4.220154267142519e-06,0.00034183693401845973,-6.074482230823972e-06,-0.0001027774533564625,-4.978663359955915e-05,5.96666861900443e-05,3.858655544544594e-05,9.19924435374222e-06,-0.00012456064254898094,0.0004864072145055109,-3.4393813653692234e-05,1.1841856649022886e-06,-0.00018655748181571217,4.301517992731555e-05,9.412558032553071e-05,-6.408104234803221e-05,6.013436615003752e-05,9.97179741536736e-05,-0.0002315293916012583,0.00021264189577272402,-0.0001323756884362384,9.187102121900026e-06,0.00022916073989148815,0.00015468639642892012,-0.00013363271682354013,-0.00028018932969237255,5.704173206142133e-05,8.725502957666499e-05,0.00021902837965407003,-0.00015188747745356428,0.00018040225372560175,0.0004569255213478667,7.325968407586075e-05,8.971208363397604e-05,0.00022695431561510555,9.917596523418349e-05,7.558942776921859e-05,-0.00019402647174740327,-0.00012352135017543823,-0.0001166777168863718,-3.7041919752205034e-05,4.643089650631251e-06,9.282507689997134e-05,7.08329006037717e-05,6.309742411067465e-05,9.750208117045652e-05,2.4679199421489978e-05,-0.0003929654308968003,-3.732224424087735e-05,0.00019889503753998215,-0.00011824977790114628,0.00010895588139750094,-0.0001016726211245313,0.0002672582836059136,8.242191043145322e-05,-0.00010929082933966471,-0.0002461300203186009,-0.00013927840572695077,8.69526677977425e-05,-0.00011551806310706092,0.00013987666262384456,-6.135727743959934e-06,3.3001736998828574e-05,-0.00010208278555567375,0.00019316347073796293,6.484659262096786e-05,1.969368702588553e-05,9.835667399910192e-05,-0.00029012547226239756,-2.14718597223605e-05,0.00011196481960189991,-0.00014548118726548056,-0.00016464462176331114,0.0003698823669482311,0.00020280089521147328,-0.00013169099212622501,3.791348429046707e-05,0.0003080089149051306,7.160868288113862e-05,0.00018487321072790323,2.314267184541439e-05,8.130239023750973e-05,0.00020485164688424241,-0.00013689214124758874,4.598724707135351e-05,6.452041300838446e-05,3.189129738908057e-05,-4.861608472037825e-05,0.00035440110272863035,-0.00024678845510065015,0.00016406670423557563,1.5861784671462154e-05,0.00015843329452268557,0.0001696552588372194,-0.0001102701869609675,0.00014326372400490464,6.841093540797366e-05,0.0004781197913736641,0.00011097929886957397,0.0002930576756442494,0.00013301869441830665,4.2833201682817285e-05,-8.760416968224073e-05,-1.210247654152745e-05,9.856253197400339e-05,-0.00023129647797984944,0.00010760958538678655,-0.00018893164692497763,-0.00031357228802623597,1.2004844052828587e-06,9.925663461790663e-05,3.5701844365955785e-05,-0.00015320021494517807,0.00012410256822300504,-0.0001499682615623202,0.0004457116193024564,0.00022105344500363867,0.0001558643774766239,-0.00022214913716054124,-0.00010880322222331939,5.2877284818219486e-06,3.522476780618779e-05,-0.00019830336361240696,-4.269442177745918e-05,-0.00046271356800829585,0.00018034334675855464,0.00015455165012101874,7.617063231732323e-05,-8.740417479701324e-05,0.00041019859268944095,-3.712822041722531e-05,-3.8484486781502686e-05,-0.0002503991808309012,9.058741746517295e-05,-5.518954046242367e-05,-5.102222716002292e-05,-0.00015833846961147736,-5.1730689454536656e-05,-0.00017358321219444314,2.1765005796510928e-05,-0.00022783092523407031,0.0002396293293080179,6.571370948618501e-05,0.00028951008725828804,-9.657638868106028e-05,0.000411045393099095,-1.8835965247605628e-05,0.00014686997587964613,-3.6400969934543676e-05,0.00018766767995700667,0.00010754200963598413,0.00031785361342275865,0.00036853639662106047,-2.2192250033208666e-05,8.090880926798073e-05,-0.00012578828302287404,0.00010149795125919058,-0.00014983264840322334,-0.00020221358870531136,5.533119571675223e-05,4.9310079332279516e-05,-0.00010141389227900243,-0.0001961632511944333,-0.00019873354421403114,-0.00012802240527633624,0.00020776722287508872,0.00020994091005271446,9.591019791215081e-05,-0.0001587425001565406,4.713897511505823e-05,0.0003112652807613942,0.00030416587174325496,0.000128640701709,-7.229704356461955e-05,3.717909646427045e-05,0.0001242166397301042,0.000217780796578694,7.89240951923001e-05,0.00024093803957641845,-8.709447933134856e-05,-0.00024308776800369765,9.836039183365568e-05,-5.002049562585774e-05,0.00016365901220320074,0.00034611461884105085,-6.971429749815792e-05,0.00021401041454136537,-5.583338589264713e-05,-6.806877000190756e-05,-9.325192882951356e-06,-5.860332423789238e-05,2.0057208443524825e-05,-6.801266902417203e-05,0.0003179124316278526,0.00020580172914391482,-5.815900742077545e-05,0.00014376588830453964,-5.525948575839816e-06,5.484536720936876e-05,0.00023256686950181305,1.0406585628894992e-05,-9.583811949490461e-05,-8.953433774481166e-05,2.1996245925726744e-05,0.00018901635286772605,-0.00033031428889691335,0.00023671219789115502,-0.0002135428063552277,9.531684274181812e-05,1.3631562997116628e-05,-0.00021252004896943382,-8.009236257077854e-05,0.000262274977318765,8.560788309361956e-05,-0.00021574499133456936,0.0002035058219204859,0.0003280125722443182,-0.00010655958938466372,0.00015906268032825019,-0.0002722983880244407,-0.00019635547832020088,0.00011673545811277651,-0.00021777341109751718,-1.2258439281117012e-05,-4.262755691404756e-05,-0.0001367435156777431,0.00020198728338343793,0.00012953140590500197,-0.00023509880596735887,3.896755348131785e-05,0.0002377273810645139,0.00026870139139370525,9.956014636357446e-05,0.0004272134531851059,-0.000250022792622376,0.00035475318375212064,-2.1489506194306954e-05,0.00010263646962312329,-0.00014714451893136225,8.486952249515741e-05,-0.00024271230876309592,-0.0002566503698651428,-0.0002102481370925875,7.119733344751014e-05,-3.325828366083933e-05,-0.00015192280580446425,-1.8738834664037873e-05,0.0004892363872615072,-0.0002443755010457267,-0.00025044099651192565,-0.00014785539984068404,-0.00027816897932518017,0.0002442061317268081,-6.44992847632171e-05,-7.964975820999221e-05,-0.00021399282384622153,-0.00023776073059399156,-0.00015068540810274004,0.0002892436021325644,-7.987199850973317e-05,-0.0001690445710085297,-0.00024251261958867354,-0.0002908816593038712,5.941244067827555e-05,0.00013719152544659953,-0.00014379899918583088,0.0002318852330739465,0.0004428713363407162,3.8596447010539235e-05,-1.856762559494275e-05,0.0001282322948396128,0.00012798710684700277,-0.00016949445412943473,0.00010191268144520621,-4.012969785760377e-05,0.0003132705627061375,-3.881427661822728e-05,-0.00011745935282928605,-0.00015976823183304855,0.00015826846055810582,0.0004732602272206482,2.0496913366257256e-05,-0.00032765788825989996,0.00012728784975003872,4.607979620076337e-05,0.00013855943078274299,-7.184873551499176e-06,0.00029202037036682834,2.0193572091743142e-07,0.0001239221028982487,-9.932216266648587e-05,-0.0002669203284799469,-2.0631090367407093e-05,0.00021741134509195177,7.133767700826074e-05,-0.00010907507863891836,-0.00011320301932784078,0.00015674802282540558,0.0001695136187852327,6.865365275763181e-05,-4.1785021417547146e-05,0.00023014881477744701,-0.00011807103703017781,-6.353822518528474e-05,-0.00019571181021096315,0.0003111298144132084,-9.919505540313243e-05,5.483162554660454e-05,8.003749771549528e-05,-2.581289389970928e-05,-5.868214133164536e-05,0.00012594103408480287,0.00024894971720835243,-1.2880624840994692e-05,0.0005022941418649709,5.207910047003854e-05,9.015495841192131e-05,-9.166325935094504e-05,-0.00018619824800953074,0.00010080930849341296,-2.177367429828772e-05,-4.619172801726981e-05,-4.150292895106908e-05,-0.00019203402749026703,-0.00023210739493245464,4.0121515919810506e-05,-0.00025349999782198744,0.0004267490532963305,8.008502657155144e-05,0.00022354068338251376,0.00011068449639026068,0.00011568685088140195,-1.9315624366156992e-05,-0.0002045790611509472,-0.000248654428452125,-0.00030765111890364955,-0.0001921869415743781,0.00027593669332996723,-0.00012079954369634117,-0.0001721844802126919,4.1770612419882766e-05,0.00020351009992734137,0.00041172324972910015,-0.00017026984590898838,-0.00020113370923515326,-0.0002067794665600504,8.198313260819147e-06,0.00019343371791123774,-0.00014847913470923682,-1.0174693414550667e-05,-0.0004235229646517891,-0.00017948326952976884,0.00042215204114463356,0.00026767744898752854,-4.867207082763768e-05,1.831582099204012e-05,1.8511941035494113e-05,-0.00021811506700284848,-0.00030433765196493994,0.00031699418966518966,0.00016496346862926537,0.00011735195596992316,2.549524089767137e-05,0.0003275008059339707,-0.00019303426211923305,-0.0002220775600229587,-0.0002027992803672705,0.00011846414732122681,-5.0759876661473e-05,-2.2212860534684553e-05,-2.1952496290327806e-05,1.8283111037172537e-05,-0.00022738881698661638,0.00016422051198032353,0.0003935290744515639,-0.00027860781261770305,-5.181207260935746e-05,0.00020142021437570694,0.00010293698675229342,-0.00029457345099577606,-1.8426465891590405e-05,1.6589452256278837e-06,-0.0002904111423439956,0.00023206360403090783,0.00014668736509198526,6.884879261205538e-05,7.891838578320975e-05,-0.0003818420380799069,-4.659431388054653e-05,0.0002373530929649324,4.78063614327299e-05,9.118052781312104e-05,-6.770962827758508e-05,-0.00011818437624610517,0.0002616160570610668,8.19212908759156e-05,0.0003414050493261287,0.00027088250841053867,-0.000243056298522845,9.705634296188246e-05,-0.00017293400759867445,-0.0002948786896080114,0.00018639352378518938,-0.00021684846893835343,-6.712003353674453e-05,-0.00015944996862583916,0.00010688801264363366,7.322015015294205e-05,-0.0001272073116142721,3.309636347484367e-05,-0.00018000567160568958,-7.09824883901372e-05,0.0002074465262184057,6.4709025600402e-05,0.0003516804317087417,-0.00018008816286691122,0.00010719441674001967,-0.00012564270667378213,2.3482050393532907e-05,7.436933102313993e-05,-0.00012871331683714715,3.54601144592017e-05,-4.370857125559127e-05,-0.0001543681676841042,-0.00045452270658179894,-1.3846585103727151e-05,0.00012178506566811195,-0.00016703748500382465,0.000208308553365474,-0.0003997484026589817,-6.289794233991506e-05,-0.0003916561303836063,-0.00024758487917221015,0.00015854123675268053,0.0002994414903296464,0.00019503234953743677,-0.00013087020684177938,0.00028629437276149006,-0.00041567830743632905,8.695679825892827e-06,0.00015969297273211143,-5.929193299193917e-06,-0.00011836290700887769,-0.00016088970531180708,-0.00020596730045021664,-0.00010082412120093587,0.00013002466697719506,-0.00030904777862293583,0.00014897240806212886,-0.00012095142952060427,-5.1495168911932e-05,-0.0001272980287509311,0.00017047053609322487,-4.454733859721509e-05,-7.953179550694367e-05,9.828479354094804e-05,-0.00010099973447682136,0.0001612259664218183,-4.3945703257691814e-05,-5.274119812950489e-05,0.00013420256999366236,-0.00023680130374503845,9.82001284647842e-06,0.00019006001837981623,2.339916995567079e-05,0.0003715382517440258,-1.0960053133530628e-05,-0.0002672374984146025,-0.00023335892012398636,-0.0002823522324676399,-0.00015756038940949668,5.134951841529338e-05,-8.710671659821553e-05,-3.1825317111210054e-05,5.932089802601909e-05,9.316963856465787e-05,2.6031085497038565e-06,-0.00012906393680942827,-0.00019648948216484738,2.268533182377386e-05,-0.00012427367675394495,8.140673682373363e-05,-0.00022749550932867098,9.983393872431766e-05,-3.496658268357731e-05,0.00024054618982012697,0.00016508242492094307,-1.8706550031307244e-05,0.00012611491363390825,0.00012527207874566014,-8.653813121796048e-05,-0.00034990384659302516,-0.00015065457804712203,6.32099451502606e-06,0.0002383661551334453,-9.428805731264334e-05,0.00010789970213369189,0.0001483878756566128,5.1495187300889975e-05,5.9653562860764195e-05,0.00012753380904699329,-4.045862512064502e-05,0.00012855580734575755,5.6443400985775246e-05,8.556586497385145e-05,0.0005620999932180813,1.8126063446677493e-05,-9.184631781244437e-05,-0.00015116007422509006,0.00016773304172455975,-0.00018315065778548134,2.488406835959358e-05,-0.00017159041391892754,7.851879416675423e-06,0.00016334517610678932,-6.505393580331979e-05,-0.00039755127534074375,-0.00022822454904490114,-0.00018070688274357478,-6.0590157612524636e-05,0.0004506294629463447,-0.0002411527603802722,0.0001359623722090895,-0.00024406649992748185,-4.867119455397068e-05,-0.0001626417661974241,0.0001470305208938108,-0.0001084697289744109,-0.0002362578080349469,3.883077545725174e-05,0.000279040232214032,6.812235718404602e-05,-0.00038469606707817013,-0.00014055744032166485,0.0001262196131284634,-5.494657006337324e-05,-0.00012487322740172997,0.00038962055922972896,-0.00010352039670385485,0.00016733102059846003,-0.00022932367136473448,3.576433277616577e-05,-0.00014855025804026185,0.00011967753497274414,0.0004486189766192493,0.0001609496020782566,-0.00014721655047853508,0.0001648411026580613,-0.00028566346773305337,-9.424382845088549e-05,-1.5951649533235882e-05,0.00011686872295550382,-7.421539588368795e-05,7.696398599009005e-05,-4.1836597462093075e-05,0.00012193741056441337,0.00029838623853740796,4.3042504431762134e-05,0.0001070422649947009,0.00021424557206915572,-0.00010260982446834172,-1.7441078125823022e-05,-0.00016255011104352777,0.00013420326290356643,-0.000176726591719145,-6.509866818756968e-05,6.909482689201921e-06,-0.0003544352752231402,0.00018220370541828225,7.804135249277356e-05,-0.0001506972508289508,-0.0001475421464485135,0.00018106530830058233,-0.00010633482506902133,-0.00023728449602455632,-0.00020026450224823675,-0.00018796829915054272,1.8785566602845008e-06,-0.00031905333612893395,-3.821515290054161e-06,4.861545095255164e-05,-0.00015310016514357788,-0.0001742042886748305,0.00016179694167317088,0.0001849507116118723,-0.00013901138741943003,-6.608904167379314e-05,0.00016418137118671088,0.000173569909708676,-0.0002659437697203794,0.00018459778652616898,2.1885931204934866e-05,0.00016961894674908274,-0.0001818823968182125,1.2449054186235328e-05,0.00010254862736728812,-9.609385818365133e-05,4.328769031966247e-05,0.00024206811325344006,0.0001051835033975057,-9.132353622226246e-06,-0.00018242228405930059,-0.0001670794044703366,-1.773675805085602e-05,3.92667017196521e-05,-9.554100979057476e-05,-2.9574497642866644e-05,-0.0002319836195225565,0.00020876666174143328,0.00018292644918494898,1.018009746171693e-05,-7.8954652997163e-05,0.0001166884699571702,0.0002523331511773541,0.00015929060231235865,0.00021822217944049828,-0.00034337817298493,-1.1125877933339384e-05,-1.1539587768084789e-05,0.0002577731235615486,8.755608553049602e-06,-5.866346237682822e-06,1.5572383721608175e-05,-8.653127087632213e-05,0.00016424239624400028,-9.158648013420907e-05,-0.00014846175441166786,-0.0004540260000148423,1.8250788901344055e-05,-3.459567851398788e-05,-0.00035759706618028036,-3.545923599584663e-05,4.625291154501488e-05,-1.2110525774502025e-05,-2.3541227044712428e-05,-0.0001780520891879901,-5.2200728321142886e-05,0.00015132730662019233,-0.00013514867426577153,-6.786062769362348e-05,-0.0001478800411480345,-0.00032329239607890024,0.00015968103588774195,1.0019794736482676e-05,-0.00014418032241310649,-0.00016670613630461622,2.6393311605304344e-05,-1.8877843103921743e-06,7.571026091460266e-05,-0.00022391339165353616,-0.0001159303710528747,7.253379417932435e-05,0.00021860566356020168,9.885910035326256e-05,-0.0002487246730051515,0.00010442200798178686,0.0001838706347297651,-1.0221447271955884e-05,0.00021377279795120632,-0.0001859814863683717,8.009538776427013e-05,0.00019179256516213924,-0.0002454030475039565,-0.00027134022227937846,-0.00020491845575446653,-0.00010176293275788332,5.831793680164553e-05,0.0001122941429004887,-4.6093354768795694e-05,0.00015602478376002722,-0.00010488278364644753,0.00011030687598353773,0.00012376080993024778,0.000276361217947833,-0.0002791867199893697,-7.583602965230711e-05,5.177725539193647e-05,0.00023429722335729317,-0.00020355613960027944,-7.3994690068383e-05,4.799901605292328e-06,0.00034909016987614704,0.00015668502144231756,6.63063982123224e-05,0.0001983272151650379,-8.198870425061449e-05,0.00016932798651398515,0.00017891798797884417,0.00012073064098853401,0.00028336550379617106,9.714979602207713e-05,9.831076661311199e-05,-2.9337145903509432e-05,-5.950314071260334e-06,6.174355829933695e-06,-2.5472525904964934e-05,-7.946415431897535e-05,-9.887252255813562e-05,-0.00026561192491521464,-0.0001407374654574126,-0.000267093932809338,-0.00025664035952268905,4.041744966798857e-05,-8.195366588184984e-05,-0.00025218243055340125,0.00014817703620800506,0.00028995117695425587,-6.293858970039488e-05,-5.664134616866237e-06,0.0002895967579730188,-0.00020188174091043544,-3.738945487607888e-05,0.0001946074448635331,-0.00010446797794467061,-8.717205192476479e-05,0.000155573844718943,0.00028943965377206015,6.199357273863611e-05,0.0003294056294238876,3.4940742153407984e-05,0.00023425779925311782,-8.117554351295676e-05,0.00010202021999290507,-0.0002727761436825029,-0.00030581286509102397,3.8033964382868904e-05,0.00014568052746894,-0.00015014595170483575,0.00033242407727928107,0.00012389028107568425,-0.00021286610571572315,-0.0003068287753373001,0.00041555762976105856,0.00026790242538104396,5.0235159980420956e-05,-0.0002629592339618591,9.832194509228381e-05,0.0002854514349154065,9.428151387805076e-05,0.0001593262282173179,-8.872317486942539e-05,0.00010471282644718056,0.00012703462378244287,-0.00024967683175094264,-0.00012572767809068965,-0.00012392935399277723,3.7926164556606964e-05,0.00027533310050535914,0.00019784399001930637,-7.068789309133199e-05,0.00037245005829518517,0.00010803516514918666,5.6282201188134614e-05,-6.131014431117977e-05,-9.481976977776016e-05,-0.00019776205195542361,0.00024682161027931215,0.0002617798240274586,3.366387048496471e-05,-1.994011089218567e-05,3.6686614299228575e-06,5.796159313194525e-05,-7.218598276788912e-05,0.00013651146197455547,-4.1966827957352084e-05,0.00024947919687548503,-2.4170493041963123e-05,-0.00011876698875394585,-4.1114683699687644e-05,0.0001780629185187044,-0.00019646003516349592,7.993587393551797e-05,-0.00012185198147601593,-6.143096622113981e-05,-0.0001349491124502556,0.00025442944789777445,4.820530290050676e-05,8.460378701345629e-05,-0.0003103423612829764,-4.35453476438063e-06,-8.048458805049785e-05,0.00014746117261588368,-0.00015135898738120353,0.00017047825884217055,-0.0001016099807262622,-9.229959140117944e-05,-0.00031195261028850815,-0.000142128934362357,0.00043221000588313684,4.4755460198071105e-05,0.00015611742083804938,4.315954346516573e-06,0.00023841758606382216,8.920403072294596e-06,-0.00021873105429244375,0.00010366866296082423,0.00010347087409139193,-7.744544607397847e-05,-4.961412276980009e-06,-0.00014574155283583488,0.00026344689235477506,-0.00012775209756933826,-0.00025724412223955654,0.0002917354023517497,-0.0002281626883390104,-9.672746269057918e-05,0.00021079290933438861,-2.593544404938013e-05,-0.00041344388170046323,0.00011648073468655894,-1.2295984085832354e-05,-0.0001282704885835347,1.5269319874694456e-05,0.0003144194104454487,-0.00010169612777677203,-0.000126392104948805,9.679232082584325e-06,-0.00016645928029863187,-0.0003232751064501237,-0.00021048314644764847,-0.00013366719932264074,4.768733666084103e-05,0.00033143220203031305,-0.00031287085611711587,-0.0001406410125999082,-0.00014645118185389872,-7.577125686511282e-05,-1.601221921640522e-05,-7.329126536703289e-05,-0.000305214267282293,2.240518447585128e-07,-0.0003248624561595116,0.00011253773250489365,-9.436026484112276e-05,0.0004112623117162504,3.2247486749823625e-05,-4.374482201751497e-05,1.3709702269833744e-05,0.0001476531553262087,0.00010400399195122995,0.00015734555432801356,-0.00013888414117582592,-6.1016847061906653e-05,7.174153706172391e-05,-5.390576324359638e-05,-7.5374522683790315e-06,1.509498724192541e-06,-0.00015115324345581042,-4.839199847597962e-05,-0.0003188597461583946,-0.00020091883067050714,6.078338158113604e-05,-0.00014056221815809375,-7.370967040847266e-08,-0.0003717223234324973,-8.977946264327401e-05,-0.0002477323353463893,-0.0001156998825951407,-5.274720990772644e-05,-0.00010243267452603481,0.00018709931102519717,-1.275976016417849e-05,5.340328830596595e-05,0.0001232637763365266,-0.0003383991689028719,-0.00010543809495500275,9.964827199172758e-05,-0.0003063799970747777,-0.0002541160431743955,-9.571536663009797e-05,-0.00016290108719644464,7.262305368876045e-05,-5.920209155205676e-05,6.131364829173208e-05,-0.00010469509210254617,-8.71578217533087e-05,-1.6178571826937984e-05,8.859129139572819e-05,-2.7086789526287967e-05,-0.00024735208084336813,-0.00015869309900987948,-0.0001322719460466733,0.00022342117456931112,0.00019261328896060865,3.1539632175485345e-05,8.253224023185157e-05,-0.00022927337120739964,0.00023290870848754574,-5.089887179147634e-05,-5.9560358265235355e-05,-7.263134136630477e-05,8.0289394456028e-05,0.00014963397590180694,-5.817584421212131e-05,0.00021661296742099754,-5.120946580930813e-05,8.055970165274292e-05,0.000260433678393645,-9.977686850609254e-05,-0.00011127879862804529,-0.0001063124349730788,-0.00013818688429598151,-4.233262076830104e-05,-9.967612908724214e-05,-0.00014615071531037715,5.276007594106689e-05,-0.00015857935142249194,0.0001374157696175506,0.00021389846009146004,-3.74970722904018e-05,-3.217107244590892e-06,-0.0001431885752682245,0.00037804048910697574,0.00017327954908663419,-4.6581842461958945e-06,-9.724634872105058e-05,-9.526568101284898e-05,0.00010028517027907469,-9.174938724096639e-05,-1.590315888599019e-05,-0.00017859593945476589,-0.0003147189985139182,-4.6007744727460105e-06,-5.419041273493162e-05,5.930388141226301e-05,9.262933219564348e-05,-0.00016302801214301995,9.935048786577304e-06,-0.0001008429542788354,0.0003498409385365549,-0.00017077735992907035,-0.00019190289810408126,0.00023108101068607519,0.00013910039101090792,0.0002631310578274659,-0.00015834291049363495,-0.0003392633646938085,0.00024379330997420303,-0.00039222925363224185,-0.00024123684137657166,0.00033305297280678345,-0.00033530429184440316,0.00016517507436360684,0.00010757989209611007,0.00024227483055845904,0.00013120130316344656,-0.00033941024499202965,-0.0002817783304020522,0.0002018612540108683,-0.00012901800220291063,-0.0002298529387017231,-0.0002156984167238337,6.446655537210662e-05,-6.480889483493795e-05,-0.0003268722781259077,-4.83123043477992e-05,0.0001510426967373395,0.0005934567787157477,-3.129765196378024e-05,0.00016540392762545247,0.00013743565369857041,6.385417803224813e-05,7.996765670373156e-05,0.0001118174750278202,-6.736543438404637e-05,-0.0003590953755115303,-0.00037605216058728423,0.0008091655035118205,-0.00018582154041227628,-7.73574161591542e-05,0.00011413283656309409,-0.00017671138929269055,-0.00014136403954043817,-3.333139564443069e-05,-0.00023346132600113778,-0.000279156591436046,-0.0002536429679337336,0.0010607157689357283,-0.00015371985241141708,-0.00037624821402343855,8.430062873678428e-05,5.7076384034827844e-05,0.00012015209312600156,0.00019166082387056229,-5.118554075172278e-05,-0.00017366006556103825,-8.83728631848827e-05,0.0013958138766996815,-0.00014236684566070785,-0.00012632594831375895,0.0001599529741072689,-0.00024421807803628684,-0.00035119437851972174,0.00012705932327895718,-0.00019593908302292286,-0.00021187291890856815,4.196977341765825e-06,0.001504045863552717,-0.0002607488068069164,-9.84783011110671e-05,-0.00019055775789533812,-0.00026931907959922274,-0.00048822373579041403,1.6541038354614315e-05,-4.422633094254162e-05,-0.000696900703235655,0.00020102761094789137,0.002062016482824472,-0.00015605503691510584,-0.00022434878586558441,-9.334641223567437e-05,3.65188259541391e-05,-0.00012622044733969813,-0.00024990476663118286,0.00010383147799628898,-0.00012321362211896285,-0.00025257285616951165,0.001607240481876281,-0.00015506722543272728,-0.0002456065653723337,-0.0002539221658143764,0.00014156114554626271,-0.00024234275584686634,-0.0005259990069999643,-4.289334926223037e-05,-1.8429969929327158e-05,-0.0004313296201251531,0.0013940018049913906,-0.0002463235028612922,-0.00041794205091071383,-0.00031396615180037744,-0.00035162006764584885,-0.0002647387688951959,-0.00034267896156121153,1.4479760282478583e-05,4.763706991506803e-05,-0.0001365655801109718,0.001033255071778891,-5.731847490810796e-05,-6.956871769933965e-05,-0.0002910745612429398,-0.00022773056035908275,-5.985777417591312e-06,-9.498986232250504e-05,0.00014490689328535737,-3.7819980555318804e-05,8.869989305784805e-05,0.0002681981384226566,0.00022257216994274687,1.0238866711933972e-06,0.00012975486210037895,0.00018781476145274454,-0.00026274061595228703,-0.0001824946456747551,-0.00015681383497786417,0.00021974056408286997,0.00010010876403757307,0.0001469024064544509,0.00014553910951916775,-9.545982348728132e-05,-3.905559896757195e-05,-0.0003401433502461949,-6.585566727873539e-05,-0.00011357150150581078,0.0001884047055850255,-8.42109952766337e-06,4.634817057849577e-06,5.6951084837831575e-05,4.305607404653134e-05,5.397365193645676e-05,0.0003395237756241001,0.00038301841775269723,3.96558339540374e-05,0.0003141572803616394,-0.0005622525422784471,5.9010555598339226e-05,0.00017802487100449942,9.63360654386143e-06,-5.468705874797582e-05,-5.302073057110133e-05,0.00010301251497936931,-4.39518748491972e-05,-4.727622012372741e-05,-0.00027869891085098857,4.633321338094078e-06,-0.0002009730397059719,0.00015646084552574304,-0.00014078370574748675,-9.821832075553864e-05,0.00010887006155210825,-0.00010579641054217122,6.616552727118222e-05,-0.0002199609525392328,0.00046866453753731434,0.00034716903905731726,-0.00011176341098591993,-0.00018137489533308506,0.0003537124663511883,-0.0001075945710220434,1.9929266299147757e-05,-0.00014203820453623608,-0.00016293359690182824,0.0001797230856095023,-0.00017601695935765444,-0.00018889504922310808,0.00042838023563693327,-0.0002967912784722918,2.5555911980208906e-05,-8.903065400411399e-05,5.001607402905522e-05,5.6336128856062556e-05,-8.369628676271902e-05,-0.000471606194457934,-0.00010402463449240801,-3.4960579181426585e-05,-0.00032353494461889607,3.7778929169078745e-05,0.0001491645741081181,6.512273119632701e-05,-6.668448923687776e-05,-9.024713097571614e-05,-3.857601032478931e-05,-0.00011050762539851019,0.00030638025069847064,-0.00016332354018286127,-0.00012416989897948928,9.49995891034228e-05,-0.00021923161052836337,-0.00024720757917098466,4.705786699977638e-05,-4.85211307630478e-05,-0.00013840449303525803,-7.480541144390745e-05,-6.399388401347588e-06,0.00011884070177831052,-3.9319312355454945e-05,-0.0002508681599060579,0.0003484087125346146,0.00012528578391467446,-0.0001496376741664118,5.977259762047334e-05,-0.00027028119604748617,-0.00014319417041850892,-0.00016543004200293517,0.00011140327633688891,-0.0002795684884215131,0.0002602379050430903,-8.866796327933452e-05,-0.0001640307314967605,-0.00011922235062935082,0.000312804156137363,0.00023760245893235396,0.00016912480492703165,-0.00014083023428098116,-7.316212454204252e-05,-0.00015551135450737584,0.00016042068915834631,-9.16616293955754e-06,-0.00013354171478928848,-3.925520601822356e-05,-0.00011723130753879386,-0.00021273450272153523,0.00017450053084508914,2.9238486893245594e-05,-0.00016749331747176752,0.00011320423976112321,0.0001471949128104622,3.344048116024032e-05,-8.643616477478205e-05,0.00029262994309877294,0.00013129176280309712,3.9657990685749795e-05,0.00023499905254325122,-0.0002526815281745519,4.16086012413939e-05,0.00011666762310916164,-0.0002462047092575317,9.145150373384854e-05,0.00019082104439912542,-3.7021041254070835e-05,0.00017104269428797018,6.7481338560959e-05,0.00013193146690735773,-0.0002076081953648457,0.00011698531135302994,0.00019551009410785796,0.0002462655437772129,-0.00021727547864039195,3.7449888495671974e-05,-0.00015006051894019337,-0.00026794023788523,-0.00011045587786936323,-0.0002915920904868272,-1.0296018949083186e-05,-0.00019224562510311132,-8.874738916879472e-05,-5.6269856303405136e-05,0.00043842905431829053,-0.00029129454706145147,-2.3587976742374403e-05,0.0002160450291978319,-0.0002023152096213568,-8.0014607276536e-05,-3.2472541255933014e-05,-0.00028879991207470055,-0.0006031782738509664,0.0001222573084164161,0.0018067591994150056,-0.00013885165226278366,-0.00023094820444985556,-0.00016750946294805173,-0.00016277850824958644,-0.00027114279006722766,-0.00025338572932484635,-0.00011291574205063009,-0.0002612791335768258,-4.3404495811390025e-05,0.00209588658338095,-3.424244059926535e-05,-0.0002940745770915658,-0.00044811154919120744,-0.00029464533014791054,-0.0003007426448199615,-0.00033308911336961373,-0.0004740912934312447,-0.0005151180934553165,-0.0003641666310958638,0.002518985803974141,-0.00018882383287626266,-0.0001727168505262461,-0.0005487309128087219,-0.0003765701054596091,-0.0001941984766394554,-0.0005897214035000219,-0.0002142572806846972,-6.787096526065075e-05,6.04543715193166e-05,0.0027356317100450875,-0.0001930072346513189,-0.0002935401407218435,-0.00017292574926440154,-9.118797062443028e-06,-0.0004047937135318846,-0.00039936140161383414,-0.0005510188100271603,-0.0002321849837466341,-0.00027222687938537233,0.003240888709631468,-0.00019585716719471062,0.00013224233293775308,-0.0005134212615226475,-0.00042996544279400587,-0.00047606208123330467,-0.0003130608555525144,-0.0007275384257674092,-0.00052642026313689,-0.0002919320218660093,0.0029549919922366584,-0.0002525042489310554,-0.00019410753157358233,-0.00045300991873027213,-0.00020196768478510053,-0.00022163281566425755,-0.0001678265605848086,-0.0001425446742905559,-0.00048270708792872525,-0.00015742533636142801,0.0036339295073819448,-0.0005419942103330919,-0.000312549974248972,-0.00023703210824536436,-0.0001452101170166083,-0.0006941360922957263,-0.00041515477768339104,-0.0004346727031307641,-9.399293248886828e-05,-0.00020329084217272434,0.0032558347757288275,-0.0003716923754398336,-0.00030601539170273994,-0.0003064139212206486,-0.00027464081313783136,-0.00025014737518940346,-0.0001828813913178326,-0.0006663500854560871,-0.00039858123831837747,-0.00022493038042168553,0.003433194902809806,-0.00028918408349691777,-0.0005469053586111339,-0.00019032454045082582,-0.0006920529043455877,-6.0233874558736225e-05,-0.00012484408322769363,-0.0006044248378110561,-0.000496999431107489,-0.00035167594338042,0.0027216064531004683,-0.00041442154715520477,-9.756518050699502e-05,-0.00014597953670161546,-0.00022424831466292893,-2.906881869212607e-05,-0.0006189210428020108,-3.967398061668079e-05,-8.193720483318335e-05,-0.00016737058130642348,0.002047053674496356,-0.00022763212421593668,-7.297995452911548e-05,-0.00017143223095913878,-6.302982643638215e-05,-3.640315160918473e-05,-0.0003194714148298926,-0.00023478063014874663,-0.00011165655690087531,-0.0002505560083384922,0.0010678241906804254,0.0001262498837233209,-2.5034199055204467e-05,-0.00011028221593115434,2.3682241441013512e-05,3.029639106120739e-05,3.893666577546091e-06,-0.00026194322680015,0.0001742156642717149,0.00013703567127906074,0.00023303940585274794,8.926129153923204e-05,-0.00010100467729607432,-3.391727580572942e-05,2.91180924163136e-05,-8.354709240528823e-05,-0.00016519963296309282,-0.00020609262559798136,0.0004234068640176107,-5.254824548223577e-05,-6.0092364601659885e-05,6.988147352473615e-05,-0.0005509513253442506,-8.376074045281951e-05,-6.54245907435687e-05,-0.0003285101845567719,7.47760921416639e-05,-1.3638033355316153e-05,-8.944883151722744e-05,-0.00032600484270650236,-0.00021244852360232497,-6.183874613846028e-05,0.00012936836987793184,-7.139590860634014e-05,-2.3046938145668642e-05,-0.0001634905259639695,-8.238256170440778e-05,0.00017025917857718038,0.00014943349753111624,-3.036337369971314e-05,-3.7518847747184154e-05,0.00010439097574932148,-0.00024006244522643906,-1.717958817747565e-05,-2.2978812269251657e-06,9.673969863383307e-05,0.0002612279324398557,-0.00019300174992214285,-3.187156314781193e-05,-4.150201449632029e-05,-0.00025126128440419504,-0.0003978084197689354,4.114617341277192e-05,0.00035323899870274455,4.256972600342137e-05,0.0001458133474393421,0.00031619047166792476,0.0002954040910541101,0.00023395028556276196,-0.0004464613059189198,0.0002373195782411891,4.149238318677515e-05,0.00010553569412879914,0.000253901784089321,2.7532131848764667e-05,-0.00017334007031329614,0.0001411535009041764,0.00012589845085822632,7.990461218878247e-05,-6.689571174429336e-05,0.00010484701605769922,-0.00028004014817765895,0.0001291154410924311,-0.00022003283586637457,0.00017800495579821585,-3.916024171482131e-05,-0.00016116686310697323,-0.00015373456206223458,-0.00020589039996455645,0.00014257582099238723,-0.00030560503216993834,-0.0001153820191720989,0.000186493838474564,0.0002709645449375722,0.00014862100757886235,0.00011039446938380709,4.071485505403008e-05,-5.6388921422079664e-05,-0.00017880704163847897,-9.014621151417084e-05,-5.385500577455782e-05,2.2869201080680424e-05,0.00014464571906225244,-0.000320219612179261,-0.0002106718170079565,6.911300928057911e-05,-9.665403348392669e-05,0.00019754939034233863,0.0001305367381918583,-0.00023663548118048385,-0.00015354329892081412,7.858383182406575e-05,-0.000321195586142251,0.00024950143909323064,0.00021581903356306708,-1.5589373671892907e-05,-6.299687535969089e-05,-0.00013943033986774732,7.200325364863246e-05,-0.00020498294904869297,4.37662328608113e-05,-0.00010334056195098102,-7.895877824073551e-05,-0.00020437680406421065,-0.00023784218047435396,-5.1356437772988874e-05,-0.00018578685202753667,-4.424569690179218e-05,-2.7891308180453712e-05,0.00028983349131591056,0.00021019532394114872,-6.394569837092203e-05,-0.00014082932049976852,-0.00021666779794636516,0.00017255996333014436,-0.0001594180863450395,3.6578074982514055e-05,-4.431562434969435e-05,1.9475489427310704e-05,-0.00015887366969985056,0.001245286759831793,-0.00027108192704204654,0.0001987273864703589,-7.77050656847616e-05,4.1142837716122335e-05,-0.00027917040407189045,-0.000386746387396184,-0.00014392061105481733,-0.0003469452596879538,-0.0002982101264176556,0.0019581698140466054,-0.00015602084950232326,-0.0002205231827464599,-0.00048639991890141643,-0.0005212367022976885,-0.0005483793140136145,-0.0006534867260577571,-0.00048610520208106794,-0.0003122126023735722,-0.00041274878457294107,0.0029810301328300794,-9.589434290804757e-05,-0.0002840155535623043,-0.0006083732373379405,-0.0005019719147674977,-0.000630955268568817,-0.000527154952797076,-0.0003858158221441278,-0.00037667699153025303,-0.0003805620834178523,0.0033037950712534268,-0.00014445322826502606,-0.0006252176230219706,-0.0004955713887557997,-0.0006519113379883538,-0.0003280931960504091,-0.0005658497538626681,-0.00012114829238779942,-0.00034090964226795694,0.00013297119856493268,0.003957475964873347,-0.00040819455260429735,-0.0002560943259776716,-0.00020237544036662096,-0.0003843788782321487,-0.00036679391754652034,-0.0003357085401806108,-0.0003244013551446981,-0.0003412619064511834,-0.0003718604757614386,0.003736724726140749,-0.0003727143705385975,-0.0002942252432691895,-0.0005198729162763114,-0.0004533456877531571,-0.0006011942175124566,-0.00045683030260594917,-0.00027417027956531725,-8.926168590702821e-05,-0.0002634755531404732,0.0035915751414388832,-0.0005885651918845489,-0.00023462834621692984,-0.00042842375719138103,-0.00030261056498340444,-0.00020869728922498935,-0.0005325813635893487,-0.00041929072297981215,-0.0005735690332667999,-0.0006596282265495215,0.003700341956538345,-0.000643399588412319,-0.0005554363962856815,-0.0005630147339459192,-7.096241330552169e-06,-0.00035847670609970273,-0.0005326760226049283,-0.0006269800042566218,-0.0005759371295096392,-0.0007184160888712166,0.003911819184901286,-0.0006615592064730315,-0.00017000107713051798,-0.0007101203537483213,-0.0004708292914307684,-0.0005976590498490262,-0.00037445654753809956,-0.0003113875009130549,-0.0004023364213157137,-0.0007055985626461692,0.0038834088037317228,-0.00042015772208445885,-0.0005688013799758517,-0.0006384506169642833,-0.0005736884587402584,-0.0004166831423504736,-0.00032961290366276985,-0.00030874116737574344,-0.0006699327278905192,-0.0005011030221481544,0.004300855030681186,-0.0003739244329844052,-0.00045697653755628616,-0.0006565711443052196,-4.8283744728000715e-05,-0.00033934357268703417,-0.000786623124661443,-0.0004354470076894399,-0.0002783079795346744,-0.00027472065082058275,0.004199664574996687,-0.0004021900892562481,-0.00031817654425737613,-0.00043633859193124234,-0.00023766127388412828,-0.00030055538934581566,-0.0005550100637442106,-0.00046118809605214005,-0.0001612468710734427,-0.0002877700437936423,0.0037192526437650085,-2.3815837514077026e-06,-0.0005558904858176924,-0.0005215852404002919,-0.0003517824505075718,-0.00019294150027033066,3.2347365209818584e-05,-6.550043197103313e-05,-0.00022951167188156398,-0.0002854891319313869,0.0017168045214561954,-0.00032219523202187936,-0.0003268998101193046,5.3248763067791045e-05,-0.00020012387532730513,-5.8687873495368886e-05,1.566141556662523e-05,-2.5774481739188028e-05,-8.179732694410782e-05,-0.00044776674772022406,0.0005065408681306249,-0.00010701580659836443,0.0001893424017307261,-0.00028919445816079413,-6.941448734629373e-05,-0.000250211507797303,-3.1783170000987846e-05,-0.00039509208884415555,8.393681489159584e-05,-0.00016514346596587957,0.000201533672637321,0.00022907148603994155,3.4832904159832163e-05,-8.50957398710435e-05,-7.761963705892721e-05,-1.7568517689820386e-05,0.0002282665641790004,5.384898435113156e-05,6.301809223256451e-05,-0.00012248693429303722,-0.0001498861878682677,0.00011157663382946032,-0.00010636623583526437,0.00017584573659695134,-9.675725416852434e-05,-0.00030921750472372866,0.0003696803947412494,-2.534716091533604e-05,4.1816221656150026e-05,0.00010686852431041372,-0.00021301994665206942,-0.00015615247995951934,-0.00022319373287412383,0.00032606353509523914,0.00042982994474749465,0.00020704667961394645,-0.0003783238874110115,0.00016963366462991527,-1.2294012637460876e-06,-3.270347873085963e-05,1.1034702881240871e-05,-0.00037406689228783037,1.4102445929142877e-05,-3.548620470111984e-05,-0.00026297597771181974,2.785199246374546e-05,0.0001618737083311484,-0.0002671287400251599,0.0003182761568012127,-7.526063542234303e-05,-0.00023815178274615118,-1.6477786249035572e-05,-3.6678704583843625e-05,3.590493504905212e-05,0.0002715099166752551,3.0417630175427744e-05,0.00010817363256013343,9.148957968600568e-05,-0.00011464303279336504,0.0002852707684639909,7.29672222651891e-05,0.0001937305460034217,0.00024494595477621647,9.850990209027025e-08,-0.0001722652811132024,0.0001968389090699169,-0.0002633146443778407,0.00011413284086531868,0.0002474849428836477,-0.0005204194634759597,-0.0002577526042003009,-0.00019044033226930143,-0.00028791956551631073,-4.690181508886648e-05,-4.294245617806204e-05,-9.003632719993115e-06,6.904353462164369e-05,0.00012196372896508382,-0.00014195549030256797,-4.453917969005049e-05,5.61817699569427e-06,0.00014408221098158306,0.00022254133913938894,0.00016746938289609559,0.0001674278341391368,-7.536110341034645e-05,3.3344351905781585e-05,-6.406241552538566e-05,-5.025324129132293e-05,0.0002916990072662221,0.00023773983291935712,-1.3632812872883026e-05,-0.00011419416619040314,6.320946766855358e-05,-1.254080320774838e-06,3.3203639674142615e-05,0.00013639131489564363,-0.00021115786399752442,-0.00014555562052029456,0.0004965730346796234,0.00011027006411963819,7.829185579596193e-05,5.320184039897839e-05,-9.78660049119249e-05,-0.0003669828528090832,-8.046838370347903e-05,1.745674565302018e-05,-0.0002697549678369122,-0.00024274234281775032,-0.0002810219371959917,0.00036516489639718767,-0.00018676992477063522,7.254322628446251e-05,-0.00040455394130583426,-7.94239853781005e-05,-0.00019075232239350833,-0.00014360690822075447,-0.00028450799548984814,-0.00018126727426741866,7.274095564233681e-05,0.0018191738897328962,-0.0005753560780298521,0.0001576313037800645,-0.0002507451806488927,-0.00017644530887274897,-0.00037785931030011007,-0.0001312447690073368,-0.00023895204378042336,-0.00023195426512366956,-0.0003196958896830125,0.0029919924035141936,-0.00035124251589153596,-0.0004495222654050514,-0.00028018910529203813,-0.0005026917973133591,-0.0003075024942443509,-0.00045386024923478184,-0.0004036974521201335,-0.00038068773642861394,-0.0005540377421899576,0.0033489760348454213,-0.0005515815227844583,-0.0003217465946489698,-0.0005587991622529519,-0.00023671775697757332,-0.0005496221519089618,-0.0002870048003402403,-0.0004774534269052396,-0.0001505067322328229,-0.00029041456634239314,0.003146816441025189,-0.0005047242922123201,-0.00028367308085679735,-0.00024203623240676305,-0.00014604855530532453,-0.00018384780368937468,-5.329880116490706e-05,-0.0005886677963112322,0.00022304278142990848,-0.00026455858805745074,0.002982772138200467,-0.00044375792446153583,-0.0004483962977349045,-0.00017933874180143234,-0.00037697614862448056,-0.0006160967453716084,-0.0004131971810844208,-0.00033677137088001293,-0.0006795547575893233,-0.0004172486967057018,0.002493241701721309,-0.00034158006383623726,-0.00040913600210293593,8.506316276545137e-05,-0.00015667661867593873,-0.0004626204631030951,-0.00041585737486094616,-0.0004463226086160379,-0.0006081725761255212,-0.0002782072921813023,0.002114353336600542,-0.00027648592605868913,-0.0003029656984792044,-0.0002033783028994376,-0.0002144455496727862,-0.0002589553262261649,-0.00020837881282734761,0.0001428034835462942,-0.0001798376759884515,-2.491664293115939e-05,0.002412179577032375,-0.00014070009936195235,-0.00031433949528485996,-3.9251830656901926e-05,-0.0002595686531583467,-0.00041707688762452537,-0.00015766886806118876,-0.0002493511904332074,-0.0004874727078563718,-0.00034967319398022077,0.0021947058898983273,-0.0002593084882798911,-0.00015362933212299525,-0.0004799424949590295,-0.0004746453839446149,-0.00043014365095263903,-0.0003708223668391525,-0.00017963388801414074,-0.0001817034883571131,-0.0002703576519580439,0.0022031041179933096,-0.0002518309871365026,-4.654011824518697e-05,-0.0003426038057347697,-0.0004808921442652505,-0.0003698035244585851,-0.00038499838946218326,-0.000306907240690066,-0.0005971632570249724,-0.0002388986384637622,0.0037512776071783036,-0.000256392156334884,-0.0001280419674821677,-0.000673430654013015,-0.00013710351393737727,-0.00029082099129009706,-0.0005159687851873395,-0.0006735808654707281,-0.0003588040490993637,-0.0006275501085610083,0.0046767987482138895,-0.0006831111617448246,-0.0004673172391327163,-0.0004520187757899711,-0.0005873737283534574,-0.0003526514224209072,-0.0002825174379624806,-0.00039916184768157677,-0.0005605272341178994,-0.0008776513971380188,0.0036774069825537036,-0.0009750241674853248,-0.00031230707736830453,-0.0001784544992899974,-0.0002901545495256495,-0.00012856959738263938,-0.00020184210520962005,-0.0005073958577887649,-0.0002601858714909289,-0.00017647091428291703,0.0016986013452337414,-0.0001024040274598822,-0.00026832317701898763,-6.093762129924658e-06,0.00012905387819641824,-2.8455111941884647e-06,0.00020479572115707115,6.719673391265942e-05,6.342422326232065e-06,1.0553941354259373e-05,0.0006606867786160246,-0.00012868007359198824,-5.330319617350105e-05,1.5805326599777664e-05,0.00011702001652699718,0.00021301905842173707,0.00015620407354127586,6.910228095216731e-06,-0.00020867606192216234,-1.564173579741598e-05,0.00020467650122765003,-0.00020144941139135157,0.0002272027679103403,0.00012069001561167528,0.00026375570955295427,1.5644743874969924e-05,3.488006620397779e-05,0.00012602454713774272,0.0001244518874055207,9.858827281684106e-05,-0.0002374238401649808,5.583085837335628e-05,-0.0001439054593703235,-2.0803753614754724e-05,0.00011930540277023127,0.0002503786828221708,-0.0003522437423647118,-0.00014593369499578185,0.0002625335831074001,3.062679645916557e-05,-0.00012119771420617751,-5.04606800545404e-05,6.673792346265408e-05,-7.095287118711439e-05,-5.817414028776231e-05,-0.00019520857586481283,-8.750189519646396e-05,0.00018063272858791812,-0.0001948419649435277,-9.506260827183214e-06,5.6689174605256095e-05,-4.9678312597735445e-05,-8.640923520558916e-05,-7.00395462982997e-05,-2.3342676594187596e-05,0.00012641151945089313,-7.332224715190402e-06,-7.806469182813683e-05,9.733074312142227e-05,-9.13211217467025e-05,-0.0001540892586533484,0.00016481545545947372,-0.00010933354022663418,0.0001398519658562531,0.00023839668208348405,-0.00016433273079776364,0.0001896709497700932,0.00042665286153188107,-0.0002614324738912322,-1.58958836825317e-05,-3.748972660654577e-05,1.7233915065118164e-05,0.00026091149617685433,0.00035514476913076244,9.961389512370196e-05,5.8775353382931443e-05,0.0001020197196778272,4.8749506938332065e-06,-5.304133312022828e-05,5.720374919210004e-05,-0.00011238532533172283,-9.458847720482298e-05,-0.00015011977317197443,7.694508671795881e-05,-8.120673816031749e-05,0.00039359496133566357,7.942814347794751e-05,-3.666734175791063e-05,9.537333404292377e-05,0.00036645012059994083,0.00036963493437922935,-0.0002640047663347885,-0.00030434598798421807,0.00013369110310168162,0.0002722426491481736,-0.00017324465732510708,0.00024060430762807604,0.0003768262370256177,-0.0004311190497866821,-3.811735555769378e-05,-8.773318581803089e-05,-0.00024961637800602045,3.2689330730196564e-05,4.2786495600820724e-05,-0.00013650870098999923,4.8697131657680226e-05,-0.0001415595107058961,3.475016633498835e-05,8.652890057253283e-05,0.00024506222425353175,-9.70239397682781e-06,0.00010279500567392564,3.3646538969627896e-05,-0.0003766639880711234,0.00040934774606650936,3.245133344421928e-05,-5.283671351961121e-06,0.00030356803592835355,4.552258631432847e-05,-0.000191398496548662,0.0003002632236994429,4.27932776212883e-06,0.00021660186797593147,-1.853754536221077e-05,-0.0004107459536733247,3.1258690206343134e-05,-8.078129596693638e-05,-0.00035888781051210297,-0.00013088032148522857,-0.0005296073870083722,0.0017453479087187625,9.727669248950935e-05,6.365292150375845e-05,-0.0002003258850496526,-0.00046012692756461766,2.0869372582009644e-05,-0.0003793546291962737,-0.0004244917733744358,-0.000183203491387005,-0.00022430019399601148,0.0023616612892054813,5.3161621352584864e-05,-0.00041672112291719205,-1.3730915277014274e-05,-0.0006229789954946439,-0.00011109031140741165,-0.000783640939711064,-0.0003009649074915417,-0.00022779909350773285,-3.9093483645011925e-05,0.002649655150322452,-0.00041523911708344415,-0.00018721119869960403,-0.0001422590353522368,-0.00021692097729288017,-0.00017370759408011545,-1.0040819480281436e-05,-0.00017858350254608798,-0.0001328788795256603,4.4283837309101336e-05,0.002048756391406144,-0.000573158392343896,-0.0001256533874708099,5.754059117437651e-05,-0.00016041868073533578,-0.00016097716304238604,-8.81558928275984e-06,-0.0006090102480432586,-0.0003339842226340573,-5.633744089582567e-05,0.0015183614401980492,-0.0003237904348059174,-0.00012801459878128982,-0.00029469811677991964,2.4306509252837146e-05,-0.0003375017710525055,1.8483081598260666e-05,1.0248781365374828e-05,0.00013411515536987796,-1.868933634360551e-05,0.001429486065388362,-0.00012681466765817372,-0.0003487850189314148,-0.0001934294322018428,-2.1027493972369397e-05,-0.0003600544375960341,8.21501172615421e-05,-0.0003237266040578856,-0.00019735616871477377,-7.136114182910652e-06,0.0005776834689546318,0.00019966195443602057,-6.109644318398989e-05,-0.0004555173579371471,-0.00017335918449050435,0.00016268327724169683,-0.000357225090703738,-6.100214579401101e-05,1.2317074332526324e-06,3.6585226475351225e-05,0.0007969832004734452,7.236676238142784e-05,-0.00012378720684677824,0.00020201744270379834,1.2704521858149988e-05,4.991681915315071e-05,0.00014075170498883122,-9.71433641153782e-05,-0.0001170022673979877,1.4768269491891888e-05,0.0006544455844499469,-0.00020799204233200414,-0.0001976118514482982,-0.00046053698822254204,-0.0003407980345728339,-0.00040729550571877156,-0.0002478988612801866,0.000306564078358466,-0.0005149788506636137,-8.356102849545427e-05,0.001353186100399637,-0.0005135583991454054,0.00017335816495717867,-0.00045226915227321394,-0.0005886414789979696,-0.0004588345025482517,-0.00037085057602829563,-0.00037815477029902033,-0.00048107598967529655,-0.0005533164261126537,0.003384000774647719,-5.223076989871792e-05,-0.00012533833852325195,-0.00045461638474082245,-0.00012351320043644577,-0.0002279990820657042,-0.0005566262296424389,-0.0005936873879753119,-0.0006888924813200973,-0.0004895309602278063,0.004321420601794821,-0.0004361388597930411,-0.00033064909078830946,-0.00014203963961322805,-0.0003490937800729671,-0.0003486800380937269,-0.00024380219975380193,-0.00034728379508677153,-0.0007124117040425903,-0.0002494253535833948,0.0034657238318814105,-0.0005929556156745207,-8.451044970571119e-05,-5.434590578920587e-05,-0.0005141722503470673,-7.916482287410938e-05,-0.0002841679299434893,-0.00015170637511425808,-0.0003617093410656119,-4.82982303569205e-05,0.0012702146045136377,-0.0002591114678899079,-0.00043707530331788376,-0.00034806577223563747,-0.00010428224689485801,-0.0003668737045492955,-0.00019044426417503052,0.00010580022616057625,5.3799804067375376e-05,-0.0001764319002022005,0.0007162194239810908,-0.0002420193437524938,5.258036315282178e-06,0.00023724586670089158,-0.00017456690135990064,-0.00017940162739587498,-0.00014273313372247692,-0.0001461023409080344,-8.314200929742144e-06,3.018551717846005e-05,-4.521208327672611e-05,-0.00018324344762106818,-0.00026223774043572734,-0.00011698139236413185,0.00026529041380046536,-3.151531489083534e-05,-6.959936080467044e-06,0.00021372018773398426,8.160360718113209e-05,-0.00033509686563464665,-4.6810314428667254e-05,-0.0001598389922620883,5.20698719831844e-06,9.372824556153067e-05,0.00019876944584599365,0.00015030905782278652,0.00011412489395733378,0.00022790682512194158,-0.00022745157255234125,-8.979403863874519e-05,-9.755388969614257e-05,0.00015263591175339731,-0.00011920608681576996,0.0002652053757825823,0.00018422828913054775,4.7708416214607396e-06,-0.00025224809705955224,0.0001900039019342454,-0.00012251318358369787,9.81368495972611e-05,0.00010862450636686101,0.0001022663696603232,-2.461721082484998e-05,-0.0002464744587684637,-0.0001348839621012251,0.00030047820319460043,-4.964474459729766e-05,-4.1775660304702814e-05,-0.0001527219512515423,-0.0001381902622943565,-0.00010018519430511355,6.670639852419091e-05,-0.0002470967384218079,4.7944044069615646e-05,-0.00022868374407517203,-0.0002467006036928449,-0.0001683420731126712,7.033938962764446e-05,5.5111216276605635e-05,0.0001947700557756137,0.00023570008505989615,1.2925393974562049e-05,-0.0001348088581273083,0.00011242379803050117,-1.5106288048600674e-05,-0.0004958028131344868,-0.00016848844798623486,-0.0004286164911561892,-0.00025714236934610115,-0.00027860731803940807,0.0002709638391526337,-4.448930094133682e-05,9.991555687577215e-05,-0.00010693706619528115,8.642752796320217e-05,0.00047603278694111604,-0.00020158083064263286,0.00025142504630324325,-6.771990479633031e-05,6.934224312514473e-05,9.139874355812656e-05,0.00015205498521208543,0.00019440596231072517,-0.00022926076830262008,2.6376679490436974e-06,0.00010772842254380073,0.00014397308718534942,-9.090081899996526e-05,-0.0003018243593537628,2.1659386598702426e-05,-0.00017408478636858992,-0.00025628371162032083,5.8948569041306716e-05,8.703301914535512e-05,9.739731476905192e-05,0.00020590463190998097,0.0001909567689636738,0.00030437811620428866,-0.00012261323246600756,0.00010599183139380513,-0.00020071730264113288,0.00023090799705939897,-0.00025833018600775523,7.933133841052605e-05,7.939391542887268e-05,0.00017415692138410873,-0.00010066372774992602,-0.0002405440393099614,-8.813387075267288e-05,0.00020625782502912767,0.00011749467973707774,0.0002790309555784596,7.828206313180064e-05,-0.00030760464186711643,-0.00032836378497873926,-0.0002266919878688815,-0.00018048053290851325,-0.00044365785424845965,-0.00016696771728963824,-0.00012651381425697727,0.00106254124553511,-0.00030333540062687505,3.8449761458676275e-05,-1.889037205275745e-05,6.982275025378242e-05,0.0001628609285299933,-0.0002201888121776463,-0.0002983569597209009,-0.0002982430548657256,-2.282744805511515e-05,0.0014718680255305654,0.00013996109989506775,-0.00014521473344492565,7.863700324456374e-05,-0.00011665484993370658,-0.0003901147176650241,1.0734503044512495e-05,-0.00040914237516244455,-0.00020320964969153764,-0.00017080530757325262,0.0014696661863375046,5.441124066461861e-05,-0.00018124126816045652,-0.00044255795845078613,-0.00013086509741104549,0.0001303915262114072,-0.00019626575341216416,-0.0002596832792157271,-0.0005926078325579646,8.602395710571631e-05,0.0005316159307529747,-0.00020276391758850844,7.5334997688584695e-06,-0.0001523140621061403,0.0002406732445485552,0.00033696333487940764,-0.0001526325944384327,0.00037807619781151736,-0.00016161306365380555,-0.00015401603033769306,-8.543137564861968e-05,0.00018167109427996147,-0.00012122061468298051,-0.00032482310802782184,0.00017229985796870628,-6.678840210429636e-05,0.00011102170370440831,-2.5058666549048005e-05,3.969582888623246e-06,0.00012107778544927357,0.00011917239820098345,-0.00029462444046713624,0.0002031430619273816,-0.0002117256730863424,-6.917933303200807e-05,2.363292331881697e-05,0.0001988250481201435,0.00046969681352887005,6.820899430249629e-05,0.00013169220737141056,-4.8279216366094905e-05,0.00019668021375322507,2.8544376981502967e-05,0.00013651719354988956,-6.826952371149304e-05,-0.00013908160467722303,-0.00034713121954607374,-0.0003021979103922781,3.201334300444289e-05,3.009206846833575e-05,-0.00027874021399279894,-0.00012347252492259916,-0.00014829091977441668,0.00018742072470540576,-7.714712680068173e-05,0.000274180015566813,-5.535679859282119e-06,0.00019442564354662378,0.00011385238060266433,-0.00017348449173606935,0.0005743445469851013,-9.704124550153803e-05,-0.00011341815568539221,-0.00013612814963430178,5.421877144045958e-05,-0.00019144461668363136,-0.00031196633783363374,-0.0004289693949604134,-0.0007629402821485756,-0.0003097674345009226,0.001846554304483807,-0.0005627262592227738,-2.3857350104216165e-05,-0.00047960927307982534,-0.000509879423608582,-0.0001699949362891353,-0.00020968283636187238,-0.0005262488527216861,-0.0002554337387632598,-0.0004723270184635372,0.0035488945055826946,-2.5499074451207522e-05,-0.0003463790260964626,-0.00022785181653286793,-0.0004787788293086042,-0.0002643362985898386,-0.0003648081699237044,-0.00037135769006765596,-0.0005697462052897693,-0.00037511955686041963,0.0035348943302725964,-0.00031194228416395403,-0.0006399528619201898,-0.0002240486447796884,-0.00030126415028855177,0.00010281433813434546,-0.0006706092500361237,0.00023220995071696797,-0.00042220843629433945,-0.0002665179351865031,0.0023073748184705236,-6.279189644377452e-05,-0.00011294087778630855,-0.00012463759447093372,-0.0003177663441093009,-3.409601143559549e-05,-0.0002968172508887072,-0.0003199014727968232,-0.00010868707660373099,-7.052821727266736e-05,0.0007022686295872478,8.151797147765429e-05,8.487384336467649e-05,-0.0003542605149247718,-0.0003077876080889101,-5.7230118019856636e-05,0.0003832449431451916,2.6916694977200894e-05,-6.620100797234792e-05,0.00023031338828757153,0.0003100370288391098,0.00036758781454915854,0.0004563834800784014,0.00032239974471489887,-0.00012634998203236525,-0.0002800345213384924,-0.00016663547104434713,-0.00018383222009326822,1.946607201296568e-05,-6.561214808575924e-05,0.00013701610487897747,0.00013763806113754084,9.92681281522168e-05,-0.00019360932301517417,0.00022738000921584874,3.186295989684336e-05,-0.00020370641352685802,0.0001147703649327839,-0.0003984895071374327,-7.21967429546817e-06,7.763865061465234e-05,0.0003701455190627378,-2.1227982833165964e-06,-2.537577192139823e-05,-0.00032518586795772075,-0.0003164735002398966,0.0003907490952776939,-5.964973011442027e-05,0.00025536519802570767,-2.2851291490757193e-05,0.000439230047015365,0.0001977024572372698,0.00018960063936825726,0.00013897539254361372,-2.2484606671743112e-05,-0.00014080507374298424,6.704580307390676e-05,8.796878219826977e-05,0.0002083160221069798,0.0003298071250658176,-8.863839322382069e-05,0.00015852712090431246,-0.00018834820856899266,0.0001454904197555178,-0.00020100783816454966,-0.00019787026450354363,-8.948708426764273e-05,1.7419696859611398e-05,0.0004076383699447856,-0.000332909399532251,8.047818134805835e-05,-7.50475550170168e-05,3.559404140976023e-05,-0.00017926593410750468,-9.587872269856768e-05,-0.00014253242701074307,-0.0003695737266775587,-8.538181208203239e-05,0.00012336121115923373,-4.7746223040744883e-05,3.551580638806061e-05,-0.00010249401318410712,9.182479997784369e-05,-3.487152536723655e-05,3.6070779738259236e-05,7.910470211099956e-05,7.42109410508996e-05,-9.984782212556658e-05,0.00019111317028607723,-7.576756399139964e-05,0.00026288172172988177,-0.00011016991407296255,-0.00011316061397121897,-0.00011880800538287528,0.00012115540660517346,0.00024600710002645843,-0.0002816460116209243,0.00033172624699326857,1.2101746669370472e-05,2.2361960719362735e-05,-0.0003686054172549351,0.00015099919821060848,0.00015599672370297788,-4.763945255901017e-06,3.388248053491361e-05,8.14634970030092e-05,-0.00017848239985134953,-0.0001812937802254521,0.00018900040975627742,-3.289040218367921e-05,-5.2929308294241055e-05,-0.00011189046050530086,1.2495036748019351e-05,8.641147373382655e-05,-0.00038877288848015686,-8.980190293754284e-05,-0.0001400368185137804,-0.00011011140913389558,-0.00020233755967547556,-1.623203453988091e-05,-0.0001814231254488307,-0.00011287111634336034,-0.0002727854824471309,0.00014284924002054718,9.604996933383579e-05,5.655802202650233e-05,0.0002674758576788085,0.0003943594094617896,-3.463248946130471e-05,0.00015800878877402327,6.731566745335405e-05,0.0003384338918423508,0.00038694030840740324,-0.0002688721013492752,3.86984840603004e-05,-0.0002709913669162294,-0.00034651038903868545,4.097925804344917e-05,0.00022023200414258003,-0.0002572842453699988,0.0002739010472144766,-0.00011436878453426085,3.364802414114449e-05,-0.00014021985287307275,-0.0004767792862939547,0.00043219786500778057,-0.00028967153217537617,-0.00025962621524310974,0.0001173186157610307,-0.00017257687079573212,0.0004124885135159424,0.0002588937500309009,0.00020879281697653296,0.00010183726624440629,-0.000295430375569244,0.0002523095226737857,0.00015029698524312787,-6.61792922824728e-05,-0.000349710089150832,-0.000166618484069004,0.0006058448027423822,-4.0506860866310815e-05,8.52904666303607e-05,-4.1695575552700686e-05,2.6992855622759667e-05,5.372441199602533e-05,-0.0003437406499267496,0.0002789563464609748,-0.00017909380010033653,0.00011147185632553967,5.58291682312444e-05,-7.248981111711231e-05,-0.00017399361864680932,5.5377346857598486e-06,-0.0002455065099454959,-3.058503345519054e-05,-0.00016115658485359717,-9.207160541607782e-05,2.9012748614877163e-05,4.3368588148712366e-05,3.861515883112101e-05,0.00018390817252953665,-0.0001909734337913195,-7.166081082245929e-05,-0.00024609939351517883,-5.8253000280319075e-05,9.512172805909564e-05,-0.0001850198812071432,0.00013347155538996473,-0.0001468147402374301,-0.00012436375116609943,-1.0113720031483396e-06,3.093065760614646e-05,0.0002057537462213479,-1.5215523483605948e-05,0.00012935463156948435,-0.00047806287088856354,-7.065715305771009e-05,0.00016064688593611653,-0.00022381322203102188,-9.764458351003351e-05,0.00012830810373573066,-0.0003612383008658381,-0.0002532055073030562,6.799559245914549e-05,5.566184252536431e-05,-4.983736481450522e-05,7.97607301727041e-05,2.0141784073228912e-05,0.00018491580925515834,0.0004599376328083592,5.0627964865197534e-05,-0.00011434210174558574,-0.00038850517965238355,1.8000168216615256e-05,0.0003261469827015891,-0.00024415293490216575,-2.0364736286052185e-05,-0.00030177746389747516,-0.00012390660183294168,0.001657850453799681,-2.861540940356656e-05,-0.00016419402611745314,-0.0003863729052926686,-0.00028943342412138603,-0.00032479067187631846,-0.0001246510750298505,-0.00014002102340903745,-8.422735459508244e-05,-0.00042811335723939723,0.00301131519664951,-0.0002386913762589819,-0.00029274029919186447,-0.0008057783169725782,-0.0002489043134000986,-0.0004366487160317506,-0.00038930870603940055,-0.0006084578539186359,-0.0007214157339015684,-0.00023626293264817667,0.0037795029232364184,-0.0003364211411180894,-0.00032807745872574117,-0.00047724956113371676,-0.0003841892566627119,-0.0002675102706815449,-0.0004503230494383558,-0.0002067619519993263,-0.0005762057712241133,-0.00024071936497132028,0.0030686102859143537,-0.0004028640469045258,-0.00022229439625299688,-3.007324607355057e-05,0.00011225905543054676,-0.0003114078663773594,-0.00027080920478100216,0.00017277721543697416,-4.055341124442179e-05,6.722116699697155e-05,0.0015170040151339654,0.0001447688071013198,4.317966695605084e-05,8.9527357989277e-05,-5.306084298258995e-05,0.0002813596183527809,0.00010553275140440147,0.0002212734969226369,-0.00023653510677832575,-2.5508345337946716e-05,0.00022385866264774368,-0.0002497903209866258,0.0002891340477388808,-8.550989233478996e-05,0.00029122687297143527,0.0003340349315607073,-7.721987722030254e-05,-0.00018341890363569,9.989230433417617e-05,0.0001966021823441657,8.193810676664704e-06,-2.6562333853558633e-05,-5.5261545262995676e-05,1.3839486013736439e-05,3.238108815451792e-05,-0.00020741372044592093,0.00026825771049170593,0.00010879203106796242,2.5961287734518128e-05,0.00023592401479504297,-6.255796628414904e-05,-0.000143150228197028,0.0003270376363363895,-0.00010429816210054566,3.410149837610396e-05,3.527826305517945e-05,-0.00010081651975057257,-0.00012274004701596247,6.141671567123488e-05,1.5190629113626811e-06,-2.7655646353294104e-05,0.00011869390458848807,-8.394915807456105e-06,-0.00038300090252989217,0.00010005181665777116,-0.00017753327466484158,-0.0001640277634840022,0.0001674069198286737,0.00014495580839875302,-0.0003605714533617598,-5.461603632135672e-06,0.00019173555822277153,0.00022115622808921903,0.000374493633483683,-3.491757602585473e-05,-0.00015480982091438492,-1.5917015109074416e-05,-0.00015762937850657055,-0.00022847590676512524,-7.49759930515951e-05,-3.972164178362635e-05,-0.00019363146470978272,-0.00020532408355399763,7.023214949229037e-05,0.0005796376306894921,-0.00021705803855150564,2.4897605943731042e-05,-9.922639464912104e-05,-0.00020310437167441484,2.195152659178966e-05,-0.00029417461779409124,-0.00029621707827401237,0.0003874254114575114,-0.0001822815210513658,9.071912649362595e-05,0.0002177338644575038,-0.00026293432914370414,-0.0001945996072892818,3.150080843698051e-05,3.9878136506708105e-05,-0.00028260577445054705,-0.00017553294086117627,-0.0001083495093467622,0.00013508876485883103,-0.0001207947934662956,0.0001481983633351675,-6.158813235567519e-05,0.00023662402938790729,-0.00016484778214177325,-0.0001665008529046803,-4.828151635422264e-05,-0.0002909960903124761,-9.117927423796012e-05,-0.00017213510546174168,0.00012326069499922097,-2.6562587919603067e-05,-0.0002518671679935297,-0.00013942063458305046,-0.0002919616093903406,-0.00046338489796576024,-0.00018111915062024795,4.800020203531758e-05,0.00016132503067281954,-0.00017204864535844822,3.927919994265863e-05,-0.00010757410925929132,5.925380830406065e-05,4.352262396266085e-05,0.00012139622110665058,4.743043204809127e-05,-0.00023376389778281554,0.00025776244069288857,3.7311647911143576e-05,-0.00023340014020285316,-2.6997694581535475e-05,0.000190642142055356,-0.0001462447033850111,0.00046173816013703645,-3.3824340439701325e-05,3.9576347114232894e-05,-0.00031637015098485337,-0.00018974380930493137,0.0003779501233442403,-0.0002612701500096912,-0.00015206063097700765,-0.00010540876969165272,-0.0001200332182967723,9.752725953737525e-05,-0.00023127517888848277,0.00016094698409596861,-0.00013842537044915677,8.258318644697185e-05,-4.1740807100207214e-05,0.00017769023697695595,5.270797372841812e-06,8.625686480093066e-05,0.0004149593290764546,-0.00014251283278168898,2.4146421180341192e-05,0.00019092793264918504,-0.000291674722616104,9.11367440467005e-06,-4.131233560129908e-06,4.4063526988739276e-05,-5.861445819541405e-07,0.00011355381205130069,-0.00010108069376614657,0.00010591268430992414,8.629890631349392e-05,-0.00011439240891512473,-1.226902107181886e-05,0.0001814007460258584,3.721516083135195e-05,0.00014954823170794967,-2.6812342813484492e-08,-3.690928041550113e-05,8.169361267577453e-05,0.0002399806489653543,0.00019623633725748487,0.00011785849904057326,-0.00015636239124734976,0.00013956222484499413,8.748626037846133e-05,9.716039856538072e-05,-0.0001813039232322065,-1.6827727383358335e-05,0.00014440600647579868,-7.613625859947918e-06,0.00031851417800157495,-0.00025657120238657964,-0.00010469655134615127,-0.00011146058918653378,0.00014513962943933498,0.00016007716918104033,-6.63209423644948e-05,0.00014955641564796016,-0.00038835415782067834,0.0001031602017931559,0.00018552225975432404,-9.493559726025911e-05,8.449245063940676e-05,0.0002700470595787507,5.9830073124658985e-05,0.00020854868818503679,0.0003527673756263106,-0.00025824637304811145,0.0003657495282309583,0.0002811114423016535,-0.00017306539876886084,-0.0002066528555936733,0.00015121891202034843,-7.825169733492073e-05,7.234288649506889e-05,-8.081628102761203e-06,9.221957639354573e-05,-0.0002581169670782279,-0.00020733181195702516,-0.0004470991704079154,1.2378902628024749e-06,-0.00013676023314651025,0.00015180499935222116,-6.940845186486612e-05,0.00014369133922362534,-0.00014088512355959703,0.00010292614835222998,0.00024041376632460398,-0.00029547159316060413,-0.00015369173981628334,-0.0001848313583546143,0.00010118677706518655,0.0011490746416186837,-0.00018033288636433632,-0.00010575674321362433,-0.000525292616941518,-0.00017012387041205122,-1.6502580404115935e-05,-0.00011998327568599399,-9.338705849160466e-05,-0.00035929013189202964,-0.00016649752371785146,0.0024943224211877294,-0.0004583621458174144,-0.00013804054641049842,-0.00044563750222394486,-0.0006359142577412124,-0.0003895460816013864,-0.0004109558317598819,-0.0008711329617603179,-0.0005405323138998735,-0.0006474022600518581,0.003836030485118869,-0.0004718042997087523,-0.0006664226074962407,-0.00027016676615006664,-0.00048707206198436427,-0.0003229903488494826,-0.0006661905467650663,-0.00018607394350715034,-0.00040685291513858647,-0.0004594337574603042,0.0034864400661589103,-0.0002710136142196319,-0.00028594239062244115,-0.00045582841087919886,-0.0006204286917160572,-0.0002174783066179454,-0.00022288198892859732,-0.00014468405844311603,-0.000130084740725283,-0.0004998579145270956,0.0019308025954385662,-0.00014589346948184407,-0.0002014130081611273,6.183455913396817e-05,0.00010309115061722253,-5.590853645598036e-05,-0.0003875227872089073,-5.243400442395511e-05,-0.0003303290278883549,-0.00016260918704010134,0.000664496310918161,0.00013755676167348264,0.00022591884661374837,0.00013236823099505127,0.00013869674179128544,0.0001863764123099727,-0.00020443255463779264,-0.00017278237104941893,9.255754535164072e-05,0.00026511975816555174,0.0005751083622336465,0.0002748923264448881,0.0002670281746041142,-0.00017684801909178754,0.00015057764634146827,-0.0002861703989315568,-5.486065943619395e-05,0.0002363303518335013,-6.78638289680062e-05,3.0989031999124844e-05,-7.870052613032758e-05,0.00015257714942735356,9.743077546234848e-05,-0.00032105103421590814,0.00011794223392934339,-0.0003483488304230517,-0.0001429045932882054,-0.0001591118340622065,-8.628780008910926e-05,-2.3821096550207124e-05,0.000111298515375645,-0.00032265783004018834,3.77118587346536e-05,4.585343642629298e-05,9.137055493775229e-05,-0.00028463270999294263,-0.0002368298657415502,0.00027844696839891917,0.00018020090900430042,-0.00013098547994132767,6.51756995587524e-05,1.9738815830467354e-05,0.00013638617315291232,0.00016742487334485146,0.00012687776091393596,9.113053667154854e-05,6.836342826682536e-05,1.903338493261403e-05,-0.00018885922693038766,-0.00038569923514449907,-0.0001442886856684471,-2.3413924214995568e-05,-0.00017862851994396235,3.747022248661851e-05,-0.00016270798897810278,0.0002532463808663902,0.00021218372702396876,4.2710869065780524e-05,2.0581762040092312e-05,-7.112423830449186e-06,-5.371204848732475e-06,-9.286553725868861e-05,-6.926744130835572e-05,-0.0001842500939013807,6.470507098569665e-06,-3.3619064919131226e-05,-0.0001185597423055995,3.8741489894048566e-05,0.00010138148556785038,0.00031635743123818196,0.00011004584266091489,-0.00017014128548119406,3.857400323998536e-05,0.0001535568971787113,-0.00012234558283926112,-0.00021847931922776452,-0.00014583007766184338,-0.00012811718125500565,-0.00012937058592254834,-6.200940953897971e-05,0.00012575632529410787,2.6865444726123417e-06,-3.8120683689448e-05,-5.1274963360275786e-05,-7.197080051207853e-05,-0.00026194636728209405,-0.0003977768266306909,-0.00012783710966094653,-7.765124914742283e-05,-0.0002203284832055325,9.584273539347201e-05,5.6181411378219205e-05,0.00024408264552226082,0.00010691313167379112,-1.2197091050820348e-05,0.000468124070388908,-0.0004219941710653959,0.00011779930978604172,0.00021555864630788018,0.00017108258079569767,0.00022913280725212008,-0.00017355997398186028,6.0305750855977245e-06,0.00021523530050570415,-7.944143858652743e-05,0.00020384880764379306,4.313314434340109e-05,-8.258973167008562e-06,-4.317661656737878e-05,-8.934754022150579e-05,-8.908113734393453e-05,-0.00012440792872806365,-1.0240072454979679e-05,4.0143109886174465e-05,0.0004168066376706472,-0.00017871686205536886,3.941907197067748e-06,-0.00011633884953038939,2.805404950088634e-06,7.999389610097425e-06,1.412914014584339e-05,-4.775289172382856e-05,-0.00010596602751624259,-7.093546855906871e-05,0.00012463745177348066,-8.206015104881533e-05,-0.00017024145570796543,0.0002854574429314913,-0.00019524958625662898,0.00017289395406194474,0.00014793481376953246,0.00015948108819154575,0.00010791211631185128,-9.672305134057096e-05,-0.00022767416191802898,-0.0002570286416748501,0.00021333142528875864,-4.873104928433493e-05,0.0002892170819274814,-0.00013389798432976864,0.00010736521051423125,0.0002682722208257093,2.553530048984875e-05,0.00017819201497098726,-0.000134253760195696,7.588467946505506e-05,-0.0001810105100712814,-0.00034471409595787124,3.8127434766741085e-05,-0.00028864244554979533,0.000165563789129921,0.00011813116797012201,-0.00010918927015091573,2.0282575722049447e-05,-0.00018215899881547082,-0.00015588229392626867,0.00016733165998732627,0.0002019312162130336,-6.875561651047615e-05,-0.00030921864245344417,0.0001807249359427272,-0.00018704129983427548,9.838035088644179e-05,4.140373465706893e-05,0.0005195258215117637,-5.6589557477570776e-05,8.426837875405048e-05,0.00015086823304443221,4.809657317391374e-06,0.00023687673634223064,0.00010482957263684634,-0.00013534221246613702,-0.00015699636714521688,0.00014848673398528244,4.5285237324302894e-05,-5.688135858432839e-05,0.00029324035721260087,0.0003874729709775718,-0.00017380509824643,0.00012593355867871484,-0.00038167838305084293,-0.0002789739846447961,0.00026218845421378703,0.0003739871553048306,-0.00018141367200816188,-0.00012065813556113211,0.00028151322689702434,-9.455821904955669e-05,0.00022764857805495424,-8.689984198292424e-05,-3.758540409186759e-05,3.5924701169901766e-05,-2.062646149780088e-06,-0.00047769158774094503,-0.00012584365468483154,-0.00037713070157022644,0.00010411910126709825,-0.0004050003042888374,-8.288695517833986e-05,-0.00010082405381545834,0.001210457073608227,0.00022078282967381125,7.083149527173213e-05,9.088705968593946e-06,-0.00021744142754022303,-0.0003308189051242137,-0.0002690807970743244,-0.00016989946323201833,-0.00026332982654940593,0.00023847843837204768,0.0023887686809556472,-3.7900833894031057e-05,-0.0005363969787347757,-0.0003349837457192298,-0.0006868919367508978,-0.0006664586171137001,-0.0004439589442114106,-0.0005471617268256047,-0.00021952781715917853,-0.0005715277796503894,0.003709961860602971,-0.0005691100611321777,-0.00041424380313475197,-0.0005719123907322902,-0.0005215532105036487,-0.0002747136195476194,-0.0004145068322133186,-0.0002924438785231579,-0.00015034802530223927,-0.0003859950466391586,0.003697373541327052,-0.0006641558581330592,-0.00010609676489721162,-0.000630187857934133,-0.00043740847338297173,7.523779852350521e-05,-0.0006693176761527422,-0.0004821890272305231,-0.00022885788613870862,-2.7894919904923327e-05,0.002486057847612162,-0.00015515270811733472,-7.260667315136483e-05,-0.00040520898867176154,-0.0002677736551954772,-0.00016803402544143377,-0.00035222229534263974,-2.6211410518619637e-06,-0.00023078415378646115,0.00023638052832105404,0.001037768172718798,0.00018659644552157693,-0.0002236736544598688,-2.6202596449455815e-05,8.026543921735935e-05,-0.00011861723981617986,-0.00029515991268223434,-5.1700043229383184e-05,-0.00019322626628737947,-1.5232170350445914e-06,0.00029504988565005224,-0.00019386416212317328,0.0002517555298112939,-0.00021451184048356842,-6.411438768968697e-05,-0.00011574132364439293,-3.457692149985065e-05,-0.00021034098922835786,-0.00036645401268985047,7.374535414855485e-05,8.65820114699959e-05,9.902591791126345e-06,-0.00023731910661882038,3.1395671242043624e-05,-0.0001359569146494107,-1.3326379360429017e-05,-0.000101905553329249,-2.167483414353197e-05,-0.0001802161302750695,-3.4389106494057854e-05,-0.0001177167739711978,0.0001782000070628603,6.733197570464063e-05,-9.879715031617216e-05,-0.0002558555497273774,-0.0002019470278981089,6.359314808758887e-06,-0.00035250702624400204,-0.00017018394243046404,2.7876400470253708e-05,-0.0001230545813362125,-9.564488221917356e-05,0.00013186092645868147,8.820782698897829e-05,-0.00014917423473327594,0.00013278882626174257,8.653459415871643e-05,6.253290708304468e-05,-4.899234193443465e-05,-0.00028628133685662944,-0.00022853975462143954,-0.00012149159369631038,2.514940712774856e-05,0.00030468318421340677,7.552800598187387e-07,2.3138075813458766e-06,0.0003219992430823609,-0.0001460878773832294,0.00018009234991157755,0.00012576740855356052,-0.0002993420838989853,0.0003453316837701577,-0.00022244795936347895,-4.342886743388182e-05,-0.0001861835425732037,-0.00028487321671922936,-0.00017583567394267508,5.474803200414622e-05,1.6477916356955677e-05,-1.618001921801723e-05,0.000211148222388428,6.656097208692925e-05,6.713009856028659e-06,5.986747397626364e-05,0.0001877442186438995,5.0639561310016134e-05,-9.262212907037797e-05,-0.00016643196870682367,4.734205549142205e-05,-5.992196723074248e-05,1.7360258867762417e-05,-1.1975155974530398e-05,-0.00013112320669798417,-0.00013645560102230404,0.0001813345166466132,-6.989731507864434e-05,7.196952497447145e-05,-4.785622401785999e-05,0.0002812247921176962,-6.366738822375165e-05,-0.00020790123199361163,-0.00010020128937535637,-7.494202532642127e-05,-0.00024390258879153956,0.00013714317241602265,9.178307358621787e-05,1.635867761064107e-05,-0.0001674094711050236,-8.009748729817476e-05,-7.561320456079105e-05,-0.00020199463642662545,-0.0002623158360901722,0.00034453648759551957,-0.00021591892050632836,-0.0001044672964764811,0.0001255474203993211,8.229733274185451e-05,-3.705302560677209e-05,0.00014094898340529787,-0.0002698799879532594,0.0002031501334764493,0.0002937661344284823,0.00025940104414081473,0.00023756101610937112,-0.00017874124283879234,-0.00018682369884605166,0.00019880595558153418,-0.00014048661534020985,9.548536450232845e-05,-8.462951900097107e-07,0.0001879608534103903,-0.0002801263839638425,6.832451222374063e-05,5.774085440715614e-05,0.000307842381382743,0.00018750590502674704,0.00011724083926814848,1.217437352635843e-05,0.00011727459341791907,-5.3011281144923576e-05,0.00018398175019462772,0.00013802114302522832,2.7049359500964972e-05,-0.0004228114425551196,0.0001711383918260352,0.00017218764281130828,0.00022693004352612923,-6.021785389885353e-05,-0.00011065700260713565,-0.00010157933129334687,0.00011612294557948445,-0.000229743448220778,8.744656355862907e-05,0.00015468961238056134,-9.659425623925458e-05,0.0002797321140100193,0.00014109448674018562,-4.207193336005588e-05,-3.550127656133925e-05,6.973107700226874e-05,0.0001903632818114497,0.00014847390461066978,-2.804212576125505e-05,1.7622393378913525e-05,-8.229369095186417e-05,9.4699254679478e-05,-8.003614865400884e-05,-0.0005106374355902765,4.604125530637027e-05,9.023471816456058e-05,0.000163046223173341,0.0004395256394773029,3.530216699615013e-05,0.00023825960313957572,6.658917945748613e-05,-0.00011408810650623272,-0.00015741539535840706,2.2189580607299974e-07,0.00012668630320241387,0.00013340127007003232,-0.00013794207228553802,-0.00012404997360647077,0.00015437374519737648,-2.12087575279904e-05,-7.782420128591921e-05,-3.4220658003805076e-05,0.00019074314514159278,-0.00015457099634839184,0.00015019404135773105,0.00014261432463685223,6.3974976261426e-05,2.1971588835769634e-05,-3.678665663074113e-05,-0.00010160542599380635,-0.00021183747904628968,7.911579216365083e-05,-0.0001518779899443842,0.00013485383689855292,-0.00038688046899553423,0.00023717787666747655,0.0002911840761716237,0.00020023558993602125,-7.166874157612351e-05,-0.00013166000160500554,-0.0001430429921245987,0.0002829350477168604,-0.00034218167395732544,0.0002497932096603981,-7.890715144276936e-05,-0.00012969720880984484,0.0006820301439322301,1.1833804650402413e-05,-2.4948235339546345e-05,4.737977140537893e-05,-0.00048540750847191375,-0.00042016789660536205,-0.0005329505078021763,-9.324755369773035e-05,-1.2501731942363105e-05,-0.00018121091803906817,0.0020681744728958795,-0.00012665098922863544,-0.00047196333774766485,-0.0002130291390375357,-0.00023309842285918085,-0.0004335399918474147,-0.0006597693598801707,-0.00014880928453676738,-0.0007378787934655004,-0.00036578054511649167,0.0035227386169618324,-0.00028972919839841506,-0.00039143541109640527,-0.0007116684383436825,-0.000678336160850451,-0.0004511698447664042,-0.00017429503631220545,-0.0006390280338788507,-0.000603479094014354,-0.0003810758796584075,0.003572815349845269,-0.0006085782968109527,-0.0003920586258421614,-0.0005526477062209986,-0.0006515032687714052,-0.00010538661201592463,-0.0003840367581584538,-0.0005443363168673346,-0.0002147953578147313,-0.0005238996097142076,0.0026092904679387466,-0.00022914777200541356,-0.00029956282334208436,-0.00010598828748965136,4.7249778861623736e-05,-0.00031378490582116016,-0.00019775094624853087,0.00013099290736018123,-0.0003860304251540586,-0.0001559930272588279,0.0014251956064842627,0.00023127280542427096,-0.0002921537885744685,-4.320670679894741e-05,0.0003363852219588059,-0.00037795606879733316,-7.657233570729182e-05,-6.250196026988708e-05,-2.3878922038247156e-05,-0.0002567765096434831,0.00039341316344402585,0.0001730702240383864,-0.0001554620281052497,-0.00036681754126833996,-8.519665354111683e-05,0.0001447775052718728,-0.00010923794112179632,0.00015325769035720574,-0.00013722952086682802,0.00016114795394663368,-0.0001629813691754475,-0.00011891373767633959,0.0004209841855920652,2.1239546658688898e-05,0.00013906258503238413,-0.00025388419217780536,9.582412239341553e-05,0.0002420273168942245,-0.0001353876968712086,0.00019320014247954702,-0.0001734792188083598,-0.00029458824737081554,-0.0001155282015250199,-8.186594464301015e-05,-5.4503572249568555e-05,-3.9548544384311245e-05,8.676284252583144e-05,-0.00016389826807019814,-4.168326808032005e-05,9.774792477991039e-05,0.00017268766449818102,7.612398597712506e-05,0.00019277744399068386,-0.000137022723853153,6.637063953379877e-05,5.6155188200205894e-05,-6.58826884979983e-05,0.00012447773451863852,-5.486654906462448e-05,0.00010901871098073253,-0.00019190269234452352,0.00024670845265803405,5.268981416424662e-05,-6.562342500863704e-05,-0.00030607283328202135,-0.00010735163200294165,0.00024136629000473452,4.7742976461897496e-05,1.7254940421085268e-05,0.00023738914967502074,-0.00019744343940544925,8.206476244584937e-06,-5.004925085073232e-05,-0.0004347264965361384,-5.476205102964841e-05,0.0001630892346876276,7.816375279585459e-05,0.00015628528141072286,0.00014465401785386764,-0.00010811287090786164,-0.00020178109388548361,2.7111828129271736e-05,0.00012440701980638637,0.00026578602076050107,0.00037292231579045583,-0.00022894155596621144,0.0003327035387645091,-0.00021388124293808503,7.788265525295328e-05,0.0001349392396239424,0.00020987226695968217,0.00021786032750642352,-0.00012206633434027177,-6.932185477038122e-05,0.0001224963620270798,1.3845028890893008e-05,0.00015865893409955562,0.00015052310914577644,-0.0002513856962526806,-1.6798085762408992e-05,-6.821184154117486e-06,-1.7372413502929835e-06,-0.00011584990402644736,-0.00017964011411381167,-0.0002020166331861867,0.00015751431417511535,0.0003359938976944706,0.00024677522156969436,-7.725928314578419e-05,8.165414022170189e-05,7.025673073578112e-05,-0.0001238059367760767,-0.00034428553254449516,0.00010310482789346053,-0.00017795135410522843,-0.00010943503835255492,0.00023544867268254798,-1.249285617326827e-05,-0.0002637864238491073,4.211256683074948e-05,-7.69548286846687e-05,0.0002528129804242826,4.9834902622353275e-05,-0.0001626338255215372,3.979229222430185e-05,-0.00024280694641668307,6.66036710347229e-05,-0.00011859938231199309,-0.00024811049137000394,-0.00031290560216388813,0.00010646077544837444,-0.0004294826534194768,7.712000259430077e-05,0.00020859927884915195,5.609716292835655e-05,-0.00010937836759113926,-1.994484861915415e-05,-0.00028731364396674904,-8.527353476461303e-05,-0.00023220185395491472,-0.00014412878615376688,0.00043348698675362853,-8.801022869323733e-05,-0.00031437532492060245,0.0002593089463112156,0.00030046937049340704,7.349871654949368e-05,-4.794386922330696e-05,-7.967490773193238e-05,0.00020237764783662327,-6.42378871202764e-05,0.00018435915827546482,0.0003062416180618254,-0.00036092052271398205,0.00014347957731947298,-0.00022606756217774814,0.00011863471218486477,7.925199570707533e-05,0.00010072987563647316,7.10747659075342e-05,5.123912727511139e-05,-0.00019692990764717341,6.108420896626205e-05,0.0004559157062235763,-0.0001839686990776539,0.0005004381847908265,-0.0001922951468325389,-0.0001931532607499634,-0.00046191461798940423,-0.00014973170503240776,0.0003346292331646097,0.00013535386335863068,1.5111937269068536e-05,-0.0002903144232184015,9.1035524677757e-05,-0.00033274731823206466,-0.00030403978825462263,-0.00014844856618403656,-0.00014311467662315322,-0.00019222123172165853,0.00017936337517122065,0.000434370103278588,-0.00017651670466328797,2.7221985979080993e-05,0.00015802890405850015,3.6169280185075653e-05,-0.0001600748012425575,0.00030349918319121674,0.00014857091627077426,-0.00018199015929647866,-8.063431071864904e-05,9.68529803928009e-05,-1.8103034980085014e-05,0.00031849552726700585,7.33889433406357e-06,-1.36151582699273e-05,-0.00012315313721691104,0.00012218267884809452,4.779226270912902e-05,-0.00014469981698246866,-4.7565409367346624e-05,2.8643939251913784e-05,6.275482136767718e-05,-5.334975462286825e-05,0.00020870483570186948,-0.00015277400683920753,-0.00011302897899679717,-0.00014466585201485722,-4.5601861803275043e-05,-0.00022271408268478745,0.00041335716964439434,0.00016544336399371482,-9.929824746271362e-05,-0.0004895040826775534,-0.0004457855343998967,-0.00018543687765788672,-0.0002481136185937538,-0.00010238709303415841,-2.2250837042934394e-05,-5.798970886055569e-05,0.0016215122229406966,-0.00021036766175773296,-0.00044879607896685324,-0.00033589883724321427,-0.00042712014765763624,-0.0006934681118676728,-0.0006055198568938075,-0.0002073360042902912,-0.00012017997927221989,-0.0003093441896508828,0.003233527453158533,-0.0005571656680119604,-0.00047498006996638616,-0.00034270405327629894,-0.000503381881979414,-0.0001833980850412337,-0.0002463551831719754,-0.00027995980815787925,-7.036594045448525e-05,-0.00010013621559561945,0.004097992825155874,-6.98085741700799e-05,-0.0003646284316272805,-0.00019240363327771858,-0.0002631239835116756,-0.0003875488678956772,-0.00041319876310294567,-0.0006632038293981569,-0.0004569464844579863,-0.00033747013564169864,0.003309733135841834,-0.0002145479356176753,-0.00033450499727555723,-0.0002497186250759834,-0.0002350651946785921,-0.00020461554577310258,-0.00015685739414615353,-0.0001761677768240792,-0.00040701525360939254,-0.00042463400700018126,0.002097661890884339,-0.0003184105330242277,-0.00022163126890225405,-0.0002676180537705603,0.00020691357524696546,-0.0003786405005323791,-7.627215084082112e-05,-0.0001513789167108938,-7.28882448961857e-05,0.00015526287001650294,0.0007730875905364893,-0.0002978468580948932,-4.244163548539351e-06,-0.00010693740824223442,1.6611267036885775e-05,-2.587144973643194e-05,-9.480046628612828e-05,-0.0001776840294401595,4.43032424887238e-05,-0.00015725640499033767,1.5874329986180248e-05,0.00013176699382815504,0.00020908326082312565,-1.5133187004428385e-05,0.00021441322268546056,0.00030189188225465636,1.659529994660575e-05,-0.0001290992215346741,0.00021192902747498414,0.00013213466990648776,-7.163149984878613e-05,2.632953981478409e-05,2.5927613380421617e-05,-7.466793251010323e-05,0.00013859812054257378,4.839090879703673e-05,-0.00013356796713558228,8.111280187075067e-06,6.54204668230856e-05,-0.0002615744396612541,-0.0002848875574031855,-1.674877470658152e-05,0.00012238329485434623,0.00024833377905437694,-0.00020215263626807852,-5.7587973009643576e-05,-5.9806793966124843e-05,-8.955608874446899e-06,0.0004141972152293823,0.0001305579399885325,5.817425101887335e-05,-0.00020412824672156148,-2.1624032293507334e-05,0.0001448720697215982,-0.0001306883588207164,0.0002530046808330912,7.03073670431871e-05,-0.0002552542401042813,-0.00039121854476628144,-2.4694629318719956e-06,-0.0001409424711241128,0.00019382099122353192,-0.0001540057538981466,-0.0002045908013221969,-0.0003155521194943812,-0.00033022212266004285,-0.00016869440949920193,-0.00011486743266884868,-7.28608217685e-05,-0.0001036919116640908,-0.00030750084458415,1.6272085531937882e-05,-0.00019206344015087782,-4.454689169073611e-06,5.504371571566257e-05,-6.653445119422521e-06,-6.319193813088294e-05,5.552037792427265e-05,-0.00024221082031542372,0.0002634981055739194,-1.8745091112169646e-05,1.455553960154471e-05,0.000265714603683071,0.00013971984648958032,-0.0001432264852436221,-5.967274545863878e-05,-0.00020427475422476175,-0.00024416781589578566,-0.0003072191378526034,-0.000147506863949392,-0.0003203408141094034,0.00037025309537892564,0.00042196375469164487,9.778030382966133e-05,-0.00024352914042335277,-0.00017388786365477181,-0.00019417186060400316,-0.0002977757609664096,-0.0005446667036611539,4.1119779613110624e-05,0.0002145518578586923,-0.00021162998719834875,6.36641715661718e-05,8.008851769430496e-05,-8.606906373804614e-05,1.9964684227078388e-05,-0.00044532078389617033,0.00017212650802185184,-0.00010015953143912632,2.9099485370070325e-05,4.98492360899588e-05,-8.603936875413459e-05,0.00017870877125836926,-4.6723247958081916e-05,0.00020575112707873914,-0.00012610114872849498,-1.8939092927377496e-05,0.00031870688228764196,5.1441962506716985e-05,0.00012289902876119508,3.335414114204912e-05,1.755663163644142e-05,0.0001128036772514872,0.0001294967832828536,-4.047264251600734e-05,2.5961696401048198e-05,7.055529991472803e-05,6.781229318615949e-06,3.809493721022776e-05,5.042252996547569e-05,0.00014911515064193958,-6.21570941915819e-05,-3.334546839329563e-05,0.0001452515183316721,0.00013572443604952018,-0.0002677049217934214,-0.00036267755852458655,-0.0001929815794549557,0.0002786843054112301,-8.553491032912386e-05,-8.210781835918232e-05,-4.016198607564605e-05,0.0003248821470832777,-0.00019030373394539064,0.00020015796266175369,-0.00028053878622984234,9.758684244215339e-05,-0.00010949740928274219,0.00017258778086666192,-0.0003527322611833776,-0.00013237869669044497,0.00010533098709258357,-8.992454100475062e-05,0.00017359016950470855,0.00015401581157864838,2.3191644658093958e-05,-5.680819998554657e-05,-0.0001291652916089656,-7.337468403451216e-05,-9.397767287097194e-05,-9.544194947524873e-05,-0.0001411517608882718,-0.0002895229110237286,0.00011704082795906682,-6.366141004809961e-05,1.3046244794895605e-05,0.00028630616645491903,-6.549079704071807e-06,-0.00010077355195176506,-8.240880601328475e-05,-7.719514025395679e-05,-0.0001479127754092991,0.00012396799870938163,-4.939070220771749e-05,-0.0003777503673169047,-0.0001838511598712796,8.706551382258415e-05,-6.784263224789483e-05,-7.324082643026612e-05,0.00015960890070637084,0.00021072942576397472,-0.0002108296752245199,-0.00011231012296408489,-0.0001746895271139102,-4.718146380267025e-05,0.0002919624440525081,-0.00025377937254973876,0.00020977547332423616,6.576429918291635e-05,0.00021867675127922203,-0.00010641335014780176,0.00019031489257178663,0.0002410354929970447,-6.45817862997656e-05,0.00011961018181401334,-7.981889477339685e-06,-0.0002733553097227566,0.0003666415216912365,-0.0001734749406329264,1.94214738721329e-05,-0.0003235058394872283,-0.00017801619419676915,1.8412949997335185e-05,-0.0002947864811517275,9.88383901017704e-05,-5.93594521550655e-05,0.00015138736251194744,-0.0002086181659310186,5.530601621538163e-05,1.4623815385106059e-05,0.0006312838326729049,9.227192564757175e-05,0.0002351136183829928,-0.00012515165779317594,-0.0002966582841756519,-9.784292587301536e-05,-0.0002425070050851871,-0.0001737069199324793,-7.3005419411721e-05,-9.960139398158252e-05,0.002390886591263266,-0.0003145736181525532,0.00011564399049044776,-0.00022012879186165916,-0.0005484577891050042,-0.0006772401474915315,-0.0003643098071720806,-0.0003190076963027949,-0.0006491314137517053,-0.0006712745478562215,0.00401634304067912,-0.000158636981467866,-6.670635593541226e-05,-0.0005425367025069401,-0.0004240017345423886,-0.00025721846787871833,-0.00047720061406374993,-0.0005699375107569817,-0.0004097326098594714,-0.0006210217283741435,0.0034643941028584895,-0.0003077327420517511,-9.511771794620425e-06,-0.0002595773099684634,-0.00046115441816613504,-0.00011304242153063262,3.04429443113278e-05,-0.0003066612773260242,-0.00020447487223016083,-0.00023196424832143473,0.0021294912811580776,-0.00014130672167909708,-0.00023998317421828862,3.6749143751214664e-05,4.04225130275771e-05,-1.5905181035603003e-05,-0.0002379030011109191,1.49038641581783e-05,-1.6395196408227133e-05,-0.00044817820129530695,0.0006600150360309268,-0.0002716711441986841,-1.5197688302779732e-05,9.405550962039944e-05,3.2943783066867696e-05,-0.00037291994802963465,3.786031156772716e-05,7.252908604428022e-05,3.6400468364163775e-05,-0.000135831773987244,8.055972857670175e-05,4.526801018352655e-05,0.00022456713830994627,-0.00010456742190995256,0.00029940532719799915,0.0002937630488998975,-4.094676040036366e-05,0.0001027026775719629,9.059974865462529e-05,0.00033755573712666663,0.00025962223980132294,0.00010885998600097418,-0.00011732036534019509,0.00014807513720898854,